caught -5.670083337463439E-4 8.28886462841183E-4 -0.009149891324341297 -0.0032599924597889185 0.003099933033809066 -0.004051920026540756 0.0030779766384512186 -0.006728907115757465 -5.555645329877734E-4 0.00887292716652155 -0.008440978825092316 0.00891476683318615 0.0015139378374442458 0.0034981470089405775 -0.010698330588638783 -0.006436820141971111 -0.004740830976516008 0.003158095758408308 0.010197563096880913 -0.0031815008260309696 -0.005635679233819246 -0.010486912913620472 -0.0012101619504392147 0.009171664714813232 0.008576441556215286 -0.007979639805853367 0.0033104175236076117 -0.009910948574543 -0.003556810086593032 0.0011690584942698479 0.005271909758448601 -0.00917785707861185 0.007255603559315205 -0.0010116156190633774 -0.003234895644709468 -0.007330283056944609 -0.005361413117498159 0.003347990335896611 0.014881784096360207 0.011191347613930702 0.005447677336633205 -0.003091992810368538 0.008265706710517406 -0.006980622187256813 1.5967687068041414E-4 -0.006961211562156677 0.0010312657104805112 0.012420308776199818 0.016112247481942177 -0.005303232464939356 -0.00566320214420557 -0.006966684944927692 -0.0058227768167853355 0.005510776769369841 0.003456549718976021 1.0129716247320175E-4 0.010762173682451248 -0.013888813555240631 0.006349175237119198 -0.007266033440828323 -0.003948478028178215 1.2125456123612821E-4 0.00474906200543046 0.006607566028833389 0.005501142702996731 -0.005286640487611294 -0.0015353304333984852 0.002836123574525118 -0.0053786844946444035 -0.01771022193133831 -0.0015723506221547723 0.0025550080463290215 -0.007878143340349197 -0.011556776240468025 -3.8794352440163493E-4 0.005386057775467634 6.487101200036705E-4 0.004160305019468069 0.002379515441134572 -0.00134723458904773 0.00896310806274414 -0.004936405923217535 -0.0017333108698949218 0.01522468589246273 -0.002996638882905245 -4.5652492553927004E-4 -0.0028280026745051146 0.003517577424645424 -0.0012163978535681963 -3.1895461142994463E-4 0.005991035606712103 -0.00335542275570333 0.009709007106721401 -0.0033512182999402285 0.0035551099572330713 0.008856596425175667 -0.003871757769957185 -0.00506969727575779 0.002711563603952527 -0.006952220574021339
hyatt -0.009444878436625004 0.025289366021752357 3.9086973993107677E-4 -0.014515615999698639 0.012743520550429821 0.01028126198798418 0.009076019749045372 -0.010950013995170593 0.00784199871122837 0.005420951638370752 0.0019298909464851022 0.012159700505435467 -0.020254500210285187 0.023318979889154434 -0.018105721101164818 -0.018354838714003563 -0.008705072104930878 0.010037725791335106 0.024190958589315414 -9.850169299170375E-4 -0.03868921846151352 0.0034770562779158354 0.01410234160721302 0.018069084733724594 0.021758589893579483 -0.01139365416020155 0.00875063892453909 -0.02012685500085354 -0.007536615245044231 -0.011334563605487347 0.013911295682191849 -0.008323152549564838 0.025278212502598763 -0.02709367498755455 0.005939685273915529 -0.025729408487677574 -6.358317332342267E-4 -0.011119046248495579 0.02834029495716095 0.02843853458762169 -0.0023289178498089314 0.012690412811934948 0.0225815549492836 -0.0070173670537769794 -0.015268747694790363 -0.008567274548113346 -0.026119587942957878 0.007444932125508785 0.024900993332266808 -0.004001024179160595 -0.010685128159821033 0.003972345031797886 -3.441957524046302E-4 0.003977020736783743 0.01799364760518074 -0.014739921316504478 0.021892305463552475 -0.02336776815354824 -0.0044863554649055 -0.0067431870847940445 -0.006136017851531506 0.010284136049449444 -0.0071695041842758656 -0.024141443893313408 0.04506905749440193 -0.0098242973908782 -0.004361871164292097 0.01110523659735918 -0.028350714594125748 -0.02836553379893303 -0.028385799378156662 -6.248431163839996E-4 -0.008165758103132248 -0.003575054695829749 0.03281163424253464 0.0015639212215319276 0.019386708736419678 0.022589394822716713 0.008015944622457027 0.0036512399092316628 0.014263969846069813 -0.024796446785330772 7.884670631028712E-4 0.044112298637628555 -0.01881795935332775 0.002130150329321623 -0.01910874806344509 -0.014875193126499653 -0.015576541423797607 -0.02776571363210678 0.01676730066537857 -8.135154494084418E-4 0.025372199714183807 -0.0036051664501428604 0.0071866936050355434 -0.0030765673145651817 -0.004110406618565321 0.012920797802507877 -0.011396645568311214 -0.020317260175943375
year -0.009783120825886726 0.02360006608068943 0.005607491824775934 -0.012919683009386063 0.011092481203377247 0.01732132025063038 -0.013338533230125904 -0.004956868011504412 0.00757966423407197 -0.014730130322277546 0.02604387328028679 0.007566384039819241 -0.012055669911205769 0.012496035546064377 4.4565513962879777E-4 -0.009636138565838337 0.010187767446041107 0.005772889591753483 0.004076528828591108 0.011901411227881908 -0.01776151731610298 0.012374121695756912 0.009424771182239056 -6.325967260636389E-4 -8.386910194531083E-4 6.683740648441017E-4 -0.005457208026200533 -0.0058355978690087795 0.012882480397820473 -0.012006806209683418 -0.01072540320456028 -0.005885119549930096 -2.4753573234193027E-4 -0.022373218089342117 0.010159241035580635 -0.012386328540742397 0.00936312135308981 0.002169057261198759 0.009258038364350796 0.006757646333426237 -0.015700604766607285 0.005676028318703175 0.01308576948940754 -0.008126001805067062 -2.6383233489468694E-4 0.004597960039973259 -0.018735630437731743 -0.01046012993901968 0.003050567815080285 -0.011375121772289276 0.002654746640473604 0.005023941397666931 0.00796140730381012 -2.8006627690047026E-4 0.010919063352048397 -0.0010035549057647586 0.0013899130281060934 9.789340401766822E-5 -0.016173018142580986 -0.0022096314933151007 -0.006211491767317057 0.00818635057657957 -0.012735305353999138 -0.026228521019220352 0.026710934937000275 0.005200445652008057 -0.0060340180061757565 -2.3543766292277724E-4 -0.029158055782318115 8.383285021409392E-4 -0.011925455182790756 -0.00356654217466712 -0.00552893104031682 0.012195282615721226 0.02316509187221527 -0.003140999935567379 0.026231467723846436 0.028737859800457954 0.005049557890743017 0.009924276731908321 0.01497306115925312 -0.02060772478580475 0.006289468612521887 0.01182809192687273 -0.010431578382849693 -0.00839785486459732 -0.01576998084783554 -0.022087210789322853 -0.009184510447084904 -0.011009869165718555 0.006124875508248806 0.001790576963685453 0.006757836788892746 9.702289244160056E-4 -0.01482679508626461 -0.007922655902802944 0.002690512454137206 0.00875831302255392 -0.011897199787199497 0.0012671021977439523
about -0.006327299401164055 -0.001962471753358841 3.4677094663493335E-4 -0.004032713361084461 -5.539431003853679E-4 0.0077887331135571 -0.00905856117606163 0.0033908088225871325 -0.002099073026329279 -0.007762543857097626 0.013603122904896736 -0.004157843999564648 -0.001010932493954897 -0.005673198960721493 0.0056092943996191025 2.7656496968120337E-4 0.0020703452173620462 -0.003945406526327133 -1.3651186600327492E-4 0.0028152477461844683 0.007619489450007677 0.002086356282234192 0.007438190747052431 -0.0057798512279987335 -1.307800121139735E-4 -0.0023642450105398893 -9.290691814385355E-4 -0.0026451190933585167 0.005581899546086788 -0.006101571023464203 -0.009841560386121273 -0.0022661620751023293 0.002089147921651602 -0.0029435520991683006 0.0015710029983893037 -0.005138277541846037 0.003910341300070286 0.001484584528952837 -0.008023889735341072 -0.008055265992879868 -1.6612402396276593E-4 9.339432581327856E-4 -0.001705259783193469 -0.004221594426780939 0.0011328201508149505 0.007986260578036308 9.554428397677839E-4 -0.005724751856178045 -0.00524502107873559 -0.0014522800920531154 -0.003580715274438262 -0.0014058558735996485 -0.0029672107193619013 0.006279836408793926 0.003454409306868911 7.791968528181314E-4 -0.003843371756374836 3.803106374107301E-4 -0.00568541930988431 0.005442851223051548 0.0015498916618525982 -0.005190923344343901 -0.0012517580762505531 -0.009533248841762543 -5.923722637817264E-4 0.007005559746176004 0.003559512784704566 8.211652748286724E-4 -0.007658073678612709 0.00169691676273942 0.004521532449871302 8.312182035297155E-4 0.00447898730635643 0.009626181796193123 0.00111407320946455 0.0035381405614316463 0.0031962499488145113 0.003802600782364607 0.002456361660733819 0.006887315772473812 0.002618712605908513 -0.006186524871736765 0.007955069653689861 -7.741957670077682E-4 0.00674912566319108 0.0026444157119840384 0.001405661809258163 -0.008330503478646278 0.0037184436805546284 -0.001298754708841443 0.005987294018268585 0.0016204332932829857 -0.004412007983773947 0.005636278539896011 -0.004621187224984169 0.0016096781473606825 -0.0019072818104177713 -0.002957821823656559 -0.0037718380335718393 0.007892272435128689
resolution 0.0019704194273799658 0.02420143410563469 9.731384925544262E-4 -0.009400911629199982 0.008683159947395325 -5.695224390365183E-4 0.001743811066262424 -0.004973650444298983 0.00629210751503706 -0.00265458389185369 0.0031937118619680405 0.01035928726196289 -0.02372804470360279 0.021726997569203377 -0.014545689336955547 -0.018212636932730675 -0.01101180911064148 0.007712958380579948 0.0037224399857223034 -0.0038386068772524595 -0.023710209876298904 0.007003647740930319 0.02112158015370369 0.017262984067201614 0.014853455126285553 -0.013082707300782204 0.011755800805985928 -0.021860631182789803 -0.003943032119423151 0.0032383317593485117 0.01105519849807024 -0.010887475684285164 0.02945932187139988 -0.017568157985806465 0.0014161186991259456 -0.023744158446788788 -0.01619686745107174 -0.001945596537552774 0.020776931196451187 0.02384231798350811 -0.006692533381283283 0.004007636569440365 0.013319486752152443 -0.01509887631982565 -7.560408557765186E-4 -0.008597785606980324 -0.003273846348747611 0.015306777320802212 0.014702378772199154 -0.010374144650995731 -9.860799764283001E-5 -1.3769765791948885E-4 -1.6560175572521985E-4 0.006483066827058792 0.007387915626168251 -0.011986831203103065 0.022886089980602264 -0.021182475611567497 -0.010102159343659878 -0.0052429442293941975 -0.007734660524874926 0.008629264310002327 -0.003005227306857705 -0.010417753830552101 0.02801469899713993 -0.0014147969195619226 -0.010140221565961838 0.0012028476921841502 -0.024769259616732597 -0.02743859775364399 -0.007040925789624453 -0.0053031351417303085 -0.004680773243308067 -0.004771871492266655 0.030508458614349365 -5.518934922292829E-4 0.007334172260016203 0.03341718018054962 0.008920988999307156 0.0020593954250216484 0.021942956373095512 -0.02084016613662243 -0.0017248369986191392 0.035359498113393784 -0.0183271337300539 0.006223863456398249 -0.011660546064376831 -0.01787259615957737 -0.010740685276687145 -0.016847794875502586 0.018675075843930244 -0.007174165919423103 0.025323979556560516 -0.007945832796394825 -0.0018197124591097236 -0.007486341055482626 -1.8479739082977176E-5 -0.002455906243994832 -0.008020655252039433 -0.01916326768696308
ban -7.975350599735975E-4 0.01261143945157528 -0.004963874351233244 -0.005991549231112003 0.006585471797734499 -0.0011305719381198287 -0.002188686514273286 -0.006766153033822775 0.001526530715636909 0.0032366591040045023 -0.005275716073811054 0.003693181090056896 -0.013204670511186123 0.005150659009814262 -0.0047699944116175175 -0.007857445627450943 -0.004622678738087416 0.003554894356057048 0.009892127476632595 -0.0024386048316955566 -0.015382368117570877 -9.528967784717679E-4 0.01076585240662098 0.004452699329704046 0.00324990670196712 -0.00591157516464591 0.0035286785569041967 -0.008346718735992908 -0.0017386780818924308 0.0011019404046237469 0.0068825362250208855 -0.008507026359438896 0.01457238756120205 -0.005917886272072792 0.003173546399921179 -0.009966985322535038 -0.004607220645993948 2.9242949676699936E-4 0.00978392455726862 0.011886747553944588 -0.005894744768738747 8.036803337745368E-4 0.006437693256884813 -8.152207010425627E-4 2.6499954401515424E-4 -0.004910687915980816 -0.008172127418220043 0.0010845877695828676 0.013848530128598213 -0.008688464760780334 -2.9409522539936006E-4 -9.118770249187946E-4 0.004533308558166027 -1.7460199887864292E-4 0.009495312348008156 -0.008919715881347656 0.013182144612073898 -0.010497074574232101 0.0016492799622938037 0.0015775779029354453 5.223186453804374E-4 0.008215872570872307 0.003554099937900901 -0.005295251030474901 0.01678602211177349 -0.007709054742008448 -2.600093139335513E-4 4.771900421474129E-4 -0.011540424078702927 -0.010290545411407948 -0.009240475483238697 -0.005194577854126692 -0.005214342847466469 -7.647460442967713E-4 0.010167296044528484 0.0029909631703048944 0.004444764461368322 0.015569125302135944 0.002243706490844488 0.003785140812397003 0.008597594685852528 -0.012628928758203983 -0.0034969851840287447 0.013605527579784393 -0.01267134677618742 0.005935744382441044 -0.008529911749064922 -0.004889268893748522 -0.0038358690217137337 -0.00563082005828619 0.005409737583249807 7.448493270203471E-4 0.010897979140281677 -0.0059547340497374535 -0.001048161881044507 -0.005691781174391508 0.0017951356712728739 0.002782481024041772 0.003142855130136013 -0.006177854724228382
jan -0.0017304244684055448 0.008934766985476017 0.0012026235926896334 -0.0013407091610133648 -0.001377493841573596 0.0023506043944507837 -4.3901908793486655E-4 -0.002584368921816349 0.005512956529855728 -0.0033779486548155546 -4.770709201693535E-4 0.005607818718999624 -0.005607420112937689 0.0061384993605315685 -0.010416531004011631 -0.005487187299877405 -0.006651006173342466 -0.0030528903007507324 0.005544714163988829 0.0018845325103029609 -0.015166628174483776 0.0010376389836892486 0.008805894292891026 2.6997021632269025E-4 0.005188426002860069 -0.010771873407065868 0.007313975598663092 -0.00989554449915886 0.0010881483322009444 0.0035443787928670645 0.005938682239502668 -0.006755670066922903 0.01808325946331024 -0.003368295496329665 0.0028998875059187412 -0.011835125274956226 -0.005391641054302454 -0.006734833121299744 0.004289444535970688 0.009161083959043026 -0.00614789268001914 -0.0031126784160733223 0.0019464148208498955 -0.002774659311398864 -0.0014316912274807692 0.002719619544222951 2.860210952349007E-4 0.003788476111367345 0.0060934810899198055 -0.006858531851321459 -0.004677057731896639 -0.0016243091085925698 -0.0012082353932783008 0.0019642317201942205 -7.031407440081239E-4 -0.008637712337076664 0.0060215238481760025 -0.008506500162184238 -6.542398477904499E-5 0.0030853815842419863 -0.0024418539833277464 0.00315294717438519 -0.0061356802470982075 -0.009218189865350723 0.014396478421986103 -0.0012641112552955747 0.0013857177691534162 0.007225362118333578 -0.01226078812032938 -0.009027794934809208 -0.00322295306250453 -0.0046097831800580025 0.0041633485816419125 -0.003178985556587577 0.015867311507463455 3.324585850350559E-4 0.002500206232070923 0.013792828656733036 0.0014278939925134182 0.0048082489520311356 0.006834771949797869 -0.01053510420024395 -0.0028618883807212114 0.01366875134408474 -0.01052334625273943 0.008963242173194885 -0.004140818025916815 -0.007024971768260002 0.0038880575448274612 -0.009449070319533348 0.008644222281873226 -7.267823675647378E-4 0.005572523921728134 -9.564304491505027E-5 2.7714931638911366E-4 -0.00439729867503047 -0.0013413893757387996 0.002938902471214533 -7.983513060025871E-4 -0.006236521061509848
fire 0.003318838309496641 -0.004004231188446283 8.580135181546211E-4 0.0029859072528779507 0.0025287549942731857 -0.0035797334276139736 -0.0019929218105971813 -0.0024143364280462265 -0.0030703020747750998 -0.002753581153228879 -0.0026965714059770107 -0.0011330507695674896 0.00558046717196703 -0.0027762646786868572 4.755668924190104E-4 -0.003083216492086649 0.0022191789466887712 -0.002452010754495859 -0.0045232088305056095 1.2258804053999484E-4 0.004039847757667303 0.004307564813643694 -0.0018927804194390774 0.0031097419559955597 0.0027641495689749718 0.0021315161138772964 7.809761445969343E-4 -0.00435844250023365 -5.487995076691732E-5 -0.002611944219097495 -0.002113503869622946 0.0031284941360354424 0.0039923908188939095 0.004033474717289209 -0.0031774749513715506 -5.047093145549297E-5 -0.002855455968528986 0.0013837360311299562 -0.005887696053832769 0.002313436008989811 0.00327680935151875 0.001839615753851831 0.0025034418795257807 0.002147067803889513 0.0018653188599273562 0.0026082638651132584 -9.375186637043953E-4 -0.003982218448072672 -0.00537154171615839 -0.001646610675379634 0.00215428089722991 -0.0031894894782453775 -0.003064739517867565 0.0023265837226063013 0.003456872422248125 -0.003001432865858078 0.0023042664397507906 0.004132370930165052 -2.816123887896538E-4 0.0060346839018166065 -1.0652377386577427E-4 -0.00146296969614923 0.0034629416186362505 -0.003580051474273205 -0.00136876804754138 2.0296000002417713E-4 5.238735466264188E-4 -0.003668781602755189 -0.0027187105733901262 -0.0022124045062810183 0.0014905473217368126 -0.0036646188236773014 -0.003287782659754157 -0.0031832256354391575 -0.0036796173080801964 -4.2277909233234823E-4 -0.0022555894684046507 0.004519302397966385 -0.002761042909696698 -0.003629598068073392 -0.0010902780340984464 4.553101025521755E-4 -0.0030669167172163725 3.368253819644451E-4 -0.0040555596351623535 0.0025466005317866802 -0.003382883034646511 2.9874604661017656E-4 4.0472892578691244E-4 0.0011365509126335382 0.003644186072051525 0.002376807387918234 0.004005419090390205 3.688267315737903E-4 7.654579821974039E-4 9.046382619999349E-4 -0.0011241898173466325 -0.00440902030095458 0.004019635729491711 0.00151999038644135
raj 0.0081595778465271 -0.010185985825955868 -1.5693649766035378E-4 -0.0024813320487737656 -0.006149420980364084 -0.0018167044036090374 0.006302944850176573 0.00938452873378992 8.784915553405881E-4 0.004446407314389944 -0.013246570713818073 -0.0027863981667906046 0.008065995760262012 -0.005896647460758686 0.002361278748139739 0.007158666383475065 0.001650166930630803 0.0034060864709317684 -0.0046806950122118 -0.002724586520344019 0.0044906260445714 -0.001262337202206254 -0.010975974611938 -0.0027045037131756544 0.0014041491085663438 -0.00339428149163723 0.005849015899002552 0.0020408376585692167 -0.004728646017611027 0.00819826778024435 -0.0025459963362663984 9.028738713823259E-4 2.9063274268992245E-5 0.010543100535869598 -0.00589506421238184 0.0057930974289774895 -0.007721054367721081 -2.3359202896244824E-4 -0.003300428157672286 -0.004050387069582939 0.004238712135702372 -0.007525879889726639 -0.0033759833313524723 0.0050773597322404385 0.00326510495506227 -0.005364750511944294 0.012461668811738491 0.008035661652684212 -0.003290413413196802 0.003253263421356678 8.133994415402412E-4 -0.007825889624655247 -0.0018179812468588352 -0.005281238816678524 -0.007756534032523632 -3.147640381939709E-4 0.002405688865110278 -9.675231412984431E-4 -6.118387682363391E-4 -0.004853829275816679 0.00839830469340086 -0.001516443444415927 0.0035477550700306892 0.01211952418088913 -0.006756623275578022 -0.0010732959490269423 5.30666671693325E-4 0.002800531918182969 0.010398205369710922 -0.003477024147287011 0.011352797970175743 -0.0033523382153362036 0.006322450470179319 -0.003625093959271908 -0.013177233748137951 9.022429585456848E-4 -0.012300574220716953 -0.010943993926048279 -0.004440720658749342 -0.0027876391541212797 -7.74657994043082E-4 0.006416617427021265 -0.004174569621682167 -0.007731360383331776 -0.00535386148840189 0.008436509408056736 0.004120089113712311 0.010364865884184837 0.01127487514168024 0.0025443152990192175 -0.004339162260293961 7.021186756901443E-4 0.0014049586607143283 5.77256316319108E-4 0.004610863979905844 0.005625695921480656 0.007437908090651035 -0.006608969531953335 0.007768896874040365 5.814674077555537E-4
state 0.0057137953117489815 -0.012431507930159569 -0.0029402566142380238 0.0033299049828201532 -0.0057563818991184235 -0.00675008911639452 -0.0010293495142832398 0.0016436204314231873 -0.0014066610019654036 0.0016357015119865537 -0.008671100251376629 -0.001968841999769211 0.0085578802973032 -0.008666283451020718 0.0045142932794988155 -0.0014543059514835477 0.0016825668280944228 -0.004905284848064184 -0.0011742901988327503 -0.006007170304656029 0.006487228907644749 -0.007256250828504562 -0.0032723017502576113 4.711905785370618E-4 -0.0010461107594892383 -0.0013260275591164827 -0.0024012457579374313 0.006753041874617338 -0.005085497163236141 0.0061189536936581135 -0.0075989048928022385 0.007774039637297392 -0.005005364306271076 0.00600320752710104 -0.002689134795218706 0.005670998245477676 0.005325164645910263 -7.943567470647395E-4 -0.005633923225104809 -6.883771857246757E-4 0.00696649169549346 -0.004206123296171427 -0.00531294709071517 0.002326953923329711 0.004194668028503656 -0.00218821014277637 0.00963765848428011 -0.0027795047499239445 -0.0015596727607771754 0.00556288193911314 -0.0011880494421347976 -0.008697187528014183 -0.0034012142568826675 -0.006520658731460571 -0.006553012877702713 0.005836618132889271 -0.002022851025685668 0.005708484910428524 9.388999314978719E-4 0.0031010499224066734 0.0022749113850295544 -0.00885902438312769 0.009054603055119514 0.011310183443129063 -0.01460075844079256 -0.0018610177794471383 0.0052046566270291805 0.0016740387072786689 0.015814339742064476 0.0053068408742547035 0.0019284650916233659 -3.2330077374354005E-4 -0.0041127814911305904 -0.006591273471713066 -0.00707579031586647 0.0034542065113782883 -0.007767792791128159 -0.016816623508930206 5.163924070075154E-4 -0.0011110194027423859 -0.003317008027806878 0.01144658774137497 6.212637526914477E-4 -0.012079929001629353 -0.002050393261015415 -9.842024883255363E-4 0.0018377687083557248 0.007256124634295702 0.005562796723097563 0.004663901403546333 -0.008965171873569489 -0.0038772099651396275 7.843260536901653E-4 4.3056157301180065E-4 0.007541997823864222 5.153267411515117E-4 0.0031560177449136972 -0.0065544829703867435 0.005124264396727085 0.006492509040981531
released -0.004319843370467424 0.018438205122947693 0.002148114377632737 -0.0044688149355351925 0.005043515469878912 0.0012882220325991511 0.002379752229899168 -0.011265465058386326 0.00771765923127532 -0.001656263368204236 -6.986540392972529E-4 0.005273773334920406 -0.012618599459528923 0.013598417863249779 -0.010455409064888954 -0.0055744643323123455 -0.006838316563516855 -4.8358470667153597E-4 0.008875946514308453 -0.0023249967489391565 -0.018698053434491158 0.004387257620692253 0.014362992718815804 0.008384074084460735 0.005654390901327133 -0.012903230264782906 0.004797698464244604 -0.014071130193769932 -0.009893393144011497 -9.396513341926038E-4 0.005648604594171047 -0.008623218163847923 0.019459078088402748 -0.01375478133559227 0.005110121797770262 -0.00878053903579712 -0.0113437594845891 9.213264565914869E-4 0.013252713717520237 0.0135765690356493 -0.00398588553071022 0.0039029039908200502 0.013419645838439465 -0.008617793209850788 -0.0013250908814370632 -0.0034136627800762653 -0.009043052792549133 0.006866366136819124 0.013302761130034924 -0.010466559790074825 -0.008868714794516563 0.0012375538935884833 -0.003251902526244521 -5.981389549560845E-4 0.0015646917745471 -0.010931123048067093 0.011711524799466133 -0.016944196075201035 -0.007441585883498192 -0.008419748395681381 -0.011290058493614197 0.003336627734825015 0.0010722257429733872 -0.005111976061016321 0.019708499312400818 -0.0034853972028940916 1.4381353685166687E-4 0.004268959630280733 -0.008619330823421478 -0.02050398848950863 -0.012143000029027462 -0.0033952416852116585 -0.0034149237908422947 -0.001558558433316648 0.011237839236855507 -0.0022110790014266968 0.006657742895185947 0.02252807654440403 0.008160259574651718 -0.002197301248088479 0.008590437471866608 -0.015734588727355003 -0.0016137538477778435 0.024073529988527298 -0.01109999231994152 0.006129398941993713 -0.005522877909243107 -0.0069810873828828335 -0.009191799908876419 -0.006980728358030319 0.006496653892099857 -0.007000732701271772 0.010266159661114216 -0.0015045059844851494 0.007337089162319899 -0.004608597606420517 -0.005665126722306013 6.501224706880748E-4 0.0017416296759620309 -0.007461576256901026
you 0.0025729667395353317 0.008945231325924397 0.0014609836507588625 -0.005962408613413572 0.002534776460379362 0.011411081999540329 0.005642136093229055 -0.008410705253481865 0.0014598923735320568 0.002335816854611039 0.0065096160396933556 0.002158088842406869 -0.011712878942489624 0.01171811018139124 -2.9377645114436746E-4 -9.009658824652433E-4 1.1376314068911597E-4 0.007031742017716169 0.012887016870081425 -0.009206979535520077 -0.011529684998095036 0.0030546882189810276 -0.0074151549488306046 0.0017519883112981915 0.005297387950122356 -2.44685827055946E-4 -0.002982186619192362 -0.0014266849029809237 -8.761786739341915E-4 -7.621661643497646E-4 0.009013616479933262 -0.004370402544736862 -0.005885213613510132 -0.009996800683438778 -0.005948677659034729 0.0021994246635586023 0.013460245914757252 0.007187929004430771 5.026660510338843E-4 0.012246395461261272 0.007768246345221996 0.010957412421703339 0.012359312735497952 0.00343965832144022 -0.008257626555860043 -0.004183680284768343 -0.00913128163665533 0.0025946563109755516 0.010667032562196255 -0.0028119501657783985 -7.690461352467537E-4 -6.084980559535325E-4 0.007771241012960672 -0.003558587050065398 0.0029019457288086414 -0.004205481149256229 1.2895101099275053E-4 -0.012260546907782555 -0.0012964545749127865 -0.005342647433280945 0.006199057679623365 0.0065353550016880035 0.003799969097599387 -0.013853020034730434 -7.328146602958441E-5 -0.006996012292802334 -4.563211987260729E-4 0.0012006141478195786 -0.00946777407079935 -0.00448659248650074 -0.015518704429268837 0.002867199247702956 -0.0014016985660418868 0.006730075925588608 0.0016416024882346392 -7.609442109242082E-4 0.013239269144833088 -0.0011066363658756018 0.0038956974167376757 6.922568427398801E-4 0.005195106379687786 -4.246627795509994E-4 -0.003411550773307681 0.012981577776372433 -0.010924155823886395 -0.00888470932841301 -0.007717097643762827 0.0014657656429335475 -0.007237332873046398 -0.005689268000423908 -0.007065936923027039 -0.0036041615530848503 1.5976352733559906E-4 -0.008065558969974518 -0.0013753524981439114 0.0030666550155729055 0.008075090125203133 0.016496336087584496 -2.6168517069891095E-4 -0.009835855104029179
deaths 0.0033474117517471313 8.428654982708395E-4 -0.0012250975705683231 -2.82631408481393E-5 0.0011300226906314492 -9.43099323194474E-4 0.007460845168679953 -0.004346533678472042 0.006731893867254257 0.0015961345052346587 -0.012848148122429848 0.0014351496938616037 0.0011625941842794418 0.004977681674063206 -0.005169929005205631 -0.009845207445323467 -0.005785111803561449 0.0023562973365187645 6.132316193543375E-4 -0.010466543026268482 6.033544195815921E-4 -0.004368647933006287 -0.004987685475498438 0.010673961602151394 0.003425701055675745 -0.01021501887589693 0.010800137184560299 -0.007934032939374447 -0.003328117076307535 0.00492269080132246 0.007491359952837229 -8.215613197535276E-4 0.007946150377392769 0.0023182816803455353 -2.4189756368286908E-4 8.136870455928147E-4 -0.00283446884714067 0.005723875481635332 0.006788906175643206 0.0038713840767741203 0.0014606643235310912 -0.0016425595385953784 -0.0010875227162614465 -0.0021010066848248243 -0.0077504306100308895 -0.0016274320660158992 0.003439687890931964 0.01155464630573988 0.006455540657043457 -0.00313032534904778 0.002416046801954508 2.8158986242488027E-4 2.304221416125074E-4 0.002691523404791951 0.0013196674408391118 -0.0013409941457211971 0.00196647085249424 -0.006527988705784082 0.009316948242485523 -0.010259113274514675 8.088379399850965E-5 -0.0025540750939399004 0.008861180394887924 0.008029413409531116 0.005605791695415974 -8.924093563109636E-4 0.0010376503923907876 -4.029066185466945E-4 0.0030141742900013924 -0.014749841764569283 -0.002591301454231143 -0.004093336407095194 -1.386122457915917E-4 -0.00448162667453289 0.002364611951634288 0.003938743378967047 -0.00788913480937481 -0.005384754855185747 0.005620494484901428 -8.459535893052816E-4 0.004565379582345486 -3.380549605935812E-4 -6.331371259875596E-4 0.010669665411114693 -0.005875223781913519 0.004694361239671707 -0.004157082177698612 0.002425560262054205 0.006605485454201698 -0.005493112839758396 9.504030458629131E-4 -0.0019698909018188715 0.005682113114744425 -0.0016152063617482781 0.01193462498486042 0.008713193237781525 0.0021494447719305754 0.001310626044869423 0.00252228113822639 -2.0012585446238518E-4
gang 0.003893251297995448 -0.00158225791528821 0.003121498040854931 0.0038639302365481853 -0.0027637388557195663 0.0023956019431352615 0.0042244247160851955 -0.002110324800014496 0.004826963879168034 0.0012177216121926904 -0.007265915162861347 -0.0012824744917452335 -0.005596342030912638 0.00442786980420351 -0.007165003102272749 -0.006364509928971529 0.0017154159722849727 -0.0014393675373867154 0.003067469224333763 -0.005830058362334967 0.0015244962414726615 0.0014224402839317918 0.0010648897150531411 0.003957885783165693 0.0052596512250602245 -0.0023757191374897957 0.0034839443396776915 -0.0024998071603477 9.781538974493742E-4 -0.004069292452186346 0.0032805679365992546 0.0029820094350725412 5.984490271657705E-4 -0.0010084511013701558 0.003260780358687043 1.223572762683034E-4 -0.002056664554402232 4.492976877372712E-4 0.0013378297444432974 0.005584952887147665 -4.150515596847981E-4 -0.0026105132419615984 0.006047921720892191 0.0036961750593036413 0.002676935400813818 -0.006655077915638685 0.0028076234739273787 0.006506267469376326 0.004950615577399731 -0.004454682115465403 -0.002180804731324315 -8.316189632751048E-4 -0.004616980906575918 -5.918273236602545E-4 0.004061659332364798 0.0018139048479497433 0.005719177890568972 -0.006292255129665136 5.95034915022552E-4 -0.006124475970864296 -8.200067677535117E-4 0.002630283124744892 -0.001977715641260147 0.0017734926659613848 0.0033789705485105515 -0.005027188919484615 0.0028174237813800573 5.666470970027149E-4 0.0046980432234704494 -0.0015236620092764497 0.003739220555871725 -0.006651538889855146 1.53101296746172E-4 2.2685616568196565E-4 -0.0027491534128785133 -2.3424378014169633E-4 -0.004313178360462189 0.0032273076940327883 -0.004367083311080933 -0.0034869429655373096 -0.0012458707205951214 -0.005532700102776289 1.650051272008568E-4 0.0025029040407389402 -0.006848789285868406 0.0056869229301810265 -0.0035310436505824327 0.005098992493003607 0.0037435805425047874 -0.00406252034008503 0.0017614226089790463 -0.005203847773373127 0.003217260353267193 -0.0020017544738948345 0.003171187359839678 0.004395345691591501 -0.0037933613639324903 0.0015463035088032484 3.122527268715203E-4 0.0016048857942223549
banks 0.0036977394483983517 0.013037505559623241 -0.0011395748006179929 -0.0018886291654780507 0.0013978173956274986 -0.00462345639243722 0.0013725963653996587 -0.011061509139835835 0.007018891163170338 -0.001997441053390503 -0.011494346894323826 0.005348552018404007 -0.014096200466156006 0.014601228758692741 -0.012643055990338326 -0.007454361766576767 -0.010790929198265076 0.003628227161243558 0.014853267930448055 -0.011387757956981659 -0.0207515899091959 -0.0054329195991158485 0.012232177890837193 0.01025858148932457 0.0022362663876265287 -0.012743808329105377 0.012921174988150597 -0.009312471374869347 -0.0033838849049061537 0.002578608226031065 0.0043294294737279415 -0.006213820539414883 0.0110077615827322 -0.00894308090209961 6.050890660844743E-4 -0.01220155879855156 -0.006733736954629421 0.005775603465735912 0.014306941069662571 0.014452320523560047 4.938499769195914E-4 -3.0168393277563155E-4 0.006437345407903194 -0.007504930254071951 -0.008083897642791271 -0.0019758054986596107 -0.009951826184988022 0.011071809567511082 0.014783475548028946 -0.003474633675068617 -0.007635788060724735 9.80715616606176E-4 -6.134597933851182E-4 0.005266010761260986 0.0013073509326204658 -0.0023038049694150686 0.01643400266766548 -0.015980426222085953 0.001706623239442706 -0.0015664062229916453 -0.005261801183223724 0.006184118799865246 0.0016961459768936038 -0.0022937937173992395 0.020891057327389717 -0.007417342159897089 -0.0013048377586528659 0.004567163065075874 -0.013861957006156445 -0.018306415528059006 -0.013633223250508308 9.704901021905243E-4 -0.0066283708438277245 -0.00841449573636055 0.014451099559664726 5.497675374499522E-6 0.009430394507944584 0.00921360868960619 0.002108572982251644 -5.980444839224219E-4 0.008502017706632614 -0.014956795610487461 0.0020971940830349922 0.016687186434864998 -0.004372313152998686 0.0022760597057640553 -0.01080492977052927 -2.9118533711880445E-4 -0.003897804766893387 -0.010158421471714973 0.006801994517445564 -0.009223530068993568 0.011104156263172626 -0.00204284256324172 0.012205563485622406 0.004424814134836197 -0.004829160403460264 -7.02833931427449E-5 0.004174769390374422 -0.009815678000450134
% 0.0015836779493838549 6.393574876710773E-4 -0.003671966725960374 -0.005232807714492083 0.003894173540174961 -0.006096656434237957 0.009142850525677204 -4.966200212948024E-4 0.008507061749696732 0.00106229935772717 -0.011244752444326878 0.004729173611849546 -0.005803566426038742 0.012346372939646244 -0.004667059052735567 -0.00401302007958293 -0.009371998719871044 -5.532948416657746E-4 0.008891791105270386 -0.007587228901684284 -0.008578251115977764 -0.008269351907074451 7.99657660536468E-4 0.008063318207859993 9.858147241175175E-4 -0.00829238723963499 0.006947535090148449 -0.004904352594166994 -0.003840669523924589 -0.005402812734246254 0.0021505621261894703 -0.003275320865213871 0.005188086535781622 -0.0051481458358466625 -0.0022607906721532345 -0.006663322448730469 -0.009814190678298473 0.002605800051242113 0.011994502507150173 0.009472213685512543 0.0020920538809150457 -0.001973674399778247 0.0076259770430624485 -0.004003101959824562 -0.005416949279606342 -0.006503349170088768 -0.0022876185830682516 0.011885521933436394 0.007722930051386356 -0.0016187765868380666 -0.005742350127547979 -0.0073251910507678986 -0.0054785823449492455 0.005110082216560841 0.006252598017454147 -0.007997335866093636 0.004195814952254295 -0.005513202399015427 0.0032420395873486996 -0.010034128092229366 0.0027290356811136007 0.002134098904207349 0.005785670597106218 3.6128974170424044E-4 0.00471942825242877 1.361336762784049E-4 -0.005688795354217291 0.002242199145257473 0.0021845099981874228 -0.01728099398314953 -0.005243559367954731 -0.0057923514395952225 -0.0070783887058496475 -0.009285948239266872 0.0024151846300810575 0.0060887145809829235 0.0020567786414176226 0.001059683389030397 0.001184341381303966 -0.005744262132793665 0.004241582937538624 -0.009398078545928001 -0.005570906214416027 0.01563851907849312 -0.006250987760722637 0.0022827910725027323 -0.0056577869690954685 0.00547726871445775 -0.005839576944708824 -0.006807510741055012 0.005975189618766308 -0.009220574982464314 0.004506934434175491 -0.001882284297607839 0.008295530453324318 -2.0408918499015272E-4 0.002943400526419282 -3.9766787085682154E-4 0.0030186816584318876 -0.004626510664820671
telangana 7.807383080944419E-4 -5.653760163113475E-4 -0.0035348006058484316 -0.0011694577988237143 -0.005762959364801645 -0.0037240292876958847 -0.00247093359939754 6.840821006335318E-4 -0.0013302741572260857 -0.0050685591995716095 0.006435189861804247 -0.004299608524888754 -5.3120151278562844E-5 -0.002739520277827978 0.0044851950369775295 0.007740122731775045 2.586783957667649E-4 0.0028003090992569923 -0.004914465826004744 0.004276284947991371 0.006503064651042223 3.5124048008583486E-4 4.5162977767176926E-4 -0.007320876698940992 -0.006450187880545855 0.0042461794801056385 -0.002865503542125225 6.349501200020313E-4 0.003963160794228315 0.005622205324470997 -0.005294353235512972 0.0026251464150846004 -5.979335401207209E-4 -7.813089760020375E-4 9.661444346420467E-5 0.003971806727349758 0.004874489735811949 -0.0010507541010156274 -0.005394118372350931 -0.006582931615412235 4.839699249714613E-4 0.0025023098569363356 -0.0062467060051858425 -0.001581451389938593 -0.0026959527749568224 0.005323590710759163 0.006212686188519001 -0.007369302213191986 -0.006965565495193005 0.0026924938429147005 -8.166098850779235E-4 0.0035907733254134655 -0.0020270757377147675 3.9137902786023915E-4 -0.0028669130988419056 0.0031713813077658415 -8.956484380178154E-4 0.003554921131581068 5.076712113805115E-4 -0.0015255335019901395 1.7279050371143967E-4 -0.0037624805700033903 0.0036889996845275164 -0.004281533882021904 0.0014578334521502256 -0.0034334869123995304 0.0010429724352434278 -9.435905376449227E-4 0.0014830383006483316 3.349651233293116E-4 0.006419687531888485 0.002882172353565693 -0.0017229733057320118 0.0028057966846972704 0.0010558696230873466 -0.004734101239591837 -6.612138240598142E-4 -0.005607976578176022 -0.0018706456758081913 -0.0015339311212301254 -0.0037612305022776127 0.004645399749279022 -0.002936934120953083 -0.008329842239618301 -0.0014107724418863654 -0.004052888136357069 0.005236800294369459 -0.0028776205144822598 -0.005099947564303875 1.494901953265071E-4 0.0011975603410974145 0.0015850582858547568 -0.008456699550151825 -0.00179055065382272 -0.004199488554149866 -0.0011761714704334736 -9.366206359118223E-4 -3.682396491058171E-4 -0.003700840985402465 7.405944634228945E-4
am 0.0017065696883946657 -0.006826055236160755 -0.0060136765241622925 -7.27140111848712E-4 0.001866683247499168 4.4486665865406394E-4 0.010898206382989883 0.007771517615765333 -6.505000055767596E-4 0.0035370641853660345 -0.01119957398623228 0.0031025162898004055 3.612056316342205E-4 -0.002843824215233326 0.0024754556361585855 -0.0049330126494169235 -2.83285160548985E-4 0.0034525427035987377 8.194814436137676E-4 -0.014009801670908928 0.0022850651293992996 0.002551653888076544 0.003402613801881671 -0.0015760333044454455 0.007493369746953249 -0.012964142486453056 0.01775919832289219 -0.004948475863784552 -0.003023213939741254 -0.0038632331416010857 0.002073190873488784 -0.0077089047990739346 0.007666605059057474 0.003726953873410821 0.0035407438408583403 -0.005069550592452288 -3.8892956217750907E-4 0.004819690715521574 0.005252350587397814 0.010374733246862888 -2.865343994926661E-4 -0.006867702584713697 -5.95291203353554E-4 -0.006288517732173204 6.322030094452202E-5 -0.0012888475321233273 0.008405542932450771 0.00451178103685379 0.011684776283800602 0.0031140127684921026 0.004848483484238386 -0.0036844690330326557 -0.00680187763646245 -0.0033262723591178656 0.0026782823260873556 -0.003691081888973713 0.008593776263296604 0.0019429026870056987 0.0026382668875157833 -0.007470676675438881 -0.0016643062699586153 0.0033061474096029997 0.005323860328644514 0.006029981654137373 0.004682049620896578 0.0028187911957502365 -0.0012852761428803205 0.004727480001747608 0.005423551890999079 -0.005043607670813799 -1.1765257659135386E-4 -0.0044313580729067326 0.006463511846959591 -0.009024458937346935 9.283476392738521E-4 0.011613591574132442 -0.012296594679355621 0.006080599036067724 0.001992318080738187 0.0035901719238609076 0.00446716183796525 0.004633518401533365 0.0010195510694757104 0.007107516750693321 -0.007491342723369598 0.001848040847107768 -0.0033754531759768724 -1.6778503777459264E-4 0.002700867597013712 -0.009507570415735245 -0.003297506831586361 -1.2785958824679255E-4 0.0028748209588229656 4.183917189948261E-4 0.012458186596632004 0.0057967910543084145 0.0056437961757183075 -0.00443066842854023 0.014072157442569733 -0.002671021968126297
court 0.0036423292476683855 0.012749280780553818 -0.005542847327888012 -0.002220776630565524 0.010248416103422642 -1.0744341852841899E-4 0.007757902145385742 -0.0014136411482468247 0.007454623933881521 0.007079784292727709 -0.008638645522296429 0.001750056049786508 -0.008214791305363178 0.009693861939013004 -0.009585514664649963 -0.012141828425228596 -0.00889922957867384 0.005652104038745165 0.008640004321932793 -0.008004536852240562 -0.012004313990473747 0.0010121644008904696 0.00906853936612606 0.012093360535800457 0.010590897873044014 -0.013212902471423149 0.011018472723662853 -0.011484162881970406 -0.005457219667732716 -4.1485202382318676E-4 0.010076991282403469 -0.007413970772176981 0.019074831157922745 -0.012241474352777004 0.004318574443459511 -0.007642209529876709 -0.008944155648350716 -0.0018701542867347598 0.011667056940495968 0.021016579121351242 0.0033505591563880444 2.6139026158489287E-4 0.009090634994208813 -0.0028187583666294813 -0.005169212352484465 -0.0022992414887994528 -0.006370815448462963 0.014383173547685146 0.01863299123942852 -0.005225027445703745 -0.003416704712435603 -0.0029883375391364098 -5.068602622486651E-4 0.005128577817231417 0.007764860056340694 -0.009904352016746998 0.01409755740314722 -0.00877112802118063 0.005639117211103439 -0.004523716401308775 -8.177658310160041E-4 0.004072149749845266 -0.0014804730890318751 0.00234549050219357 0.009510394185781479 -0.004835265688598156 -0.008202983066439629 0.003292292356491089 -0.003521042177453637 -0.017428899183869362 -0.011163118295371532 -0.007598677184432745 -0.006365833804011345 -6.662964588031173E-4 0.013296183198690414 -0.0020946951117366552 0.004845442250370979 0.013886049389839172 0.004217643290758133 1.9463490752968937E-4 0.012468146160244942 -0.012455089017748833 -0.0027905588503926992 0.019612999632954597 -0.012525863014161587 0.006739877630025148 6.301577377598733E-5 -0.004669070243835449 0.0033023557625710964 -0.0068297977559268475 0.01010952703654766 -0.006520317401736975 0.016733653843402863 -0.007833396084606647 0.009631842374801636 -0.004068192094564438 -0.0012248001294210553 -8.837698260322213E-4 -0.0030861839186400175 -0.013809419237077236
an -0.0037152699660509825 1.3162633695174009E-4 -0.002036955440416932 -0.004614467266947031 0.0016475081210955977 2.516158565413207E-4 0.0023453296162188053 -0.0016418243758380413 0.0043120537884533405 0.0034321455750614405 -0.005116295535117388 0.005267985165119171 -5.797381745651364E-4 8.55990729178302E-5 -0.005311422981321812 -0.0018923062598332763 -0.007518237456679344 -0.0030355523340404034 0.006491971202194691 -0.004184271674603224 -5.835033371113241E-4 -0.006063711829483509 -8.061514818109572E-4 0.008014172315597534 0.001742786611430347 -3.318451636005193E-4 0.0018253808375447989 -0.007580553647130728 -0.0011125766905024648 0.0036096058320254087 0.002858902560546994 0.0034358289558440447 0.007735459133982658 0.0027478360570967197 -0.002668997971341014 0.0011139285052195191 -0.006045592483133078 0.0023959456011652946 -0.0011005501728504896 0.006751403212547302 0.005028573330491781 0.004111571703106165 0.0041177463717758656 0.003710800549015403 -0.006256211083382368 0.001425734139047563 0.004130257293581963 0.006129746790975332 0.004504942800849676 -0.0029386079404503107 -0.0054282741621136665 6.509737577289343E-4 0.002603435656055808 0.0010573340114206076 -1.0208790627075359E-4 0.0016663131536915898 0.004054681863635778 -7.322010933421552E-4 0.004039682447910309 -0.0037747924216091633 -0.0034361607395112514 0.005465719383209944 0.001389406737871468 0.007146874442696571 4.609091847669333E-4 0.0027653612196445465 -3.299153468105942E-4 0.004687848500907421 -0.0019154064357280731 -0.004765346180647612 -0.0061074006371200085 0.0030643530189990997 -0.001069544698111713 -0.004088364075869322 6.617892649956048E-4 0.0019364943727850914 -0.0016484982334077358 6.740044918842614E-4 -0.003482615575194359 1.0561495582805946E-4 -1.5214244194794446E-4 -0.003679137211292982 -6.309692980721593E-4 0.001497191726230085 -4.94186591822654E-4 0.005651597399264574 -0.004727652296423912 0.004542776849120855 0.004190338775515556 -0.00432764645665884 0.0020733249839395285 0.0018461805302649736 -0.0018865795573219657 -0.0037851708475500345 0.007685684598982334 -7.20133597496897E-4 0.0027749028522521257 0.005363153759390116 0.0034211594611406326 -0.004173299763351679
illicit 0.004399633035063744 -0.005820036865770817 1.3235319056548178E-4 1.2743109255097806E-4 -0.004764431156218052 0.003332538064569235 0.0029495845083147287 -0.0038905127439647913 0.00432574562728405 -0.003319783601909876 0.004080840852111578 -0.0010811567772179842 9.089629165828228E-4 -6.064738845452666E-4 -0.0020697535946965218 -5.76055608689785E-5 0.0045152101665735245 -0.003111304482445121 0.004109976813197136 -0.0033562355674803257 -0.003158432897180319 -0.005947541445493698 -0.0023766085505485535 -9.26236913073808E-4 -0.005153765436261892 0.005554317496716976 -0.004336468409746885 0.005802606698125601 -0.0019521595677360892 -0.0015553765697404742 2.4746209965087473E-4 0.004414202179759741 -0.002314516343176365 3.314422210678458E-4 0.0023592649959027767 4.540808731690049E-4 0.0030127079226076603 -0.0028620462398976088 0.005602398421615362 0.003012625966221094 0.002645845990628004 -0.004063242115080357 -0.0011134006781503558 0.004212676081806421 -0.0029482992831617594 -0.0034022731706500053 -2.587588460301049E-5 -5.906732403673232E-4 -0.0028501185588538647 0.003145928028970957 -0.0027411009650677443 -0.0031165997497737408 -0.0020890517625957727 -0.0047477735206484795 0.004503993317484856 -9.481747401878238E-4 0.0019295680103823543 -0.0015659404452890158 -0.003322203643620014 -0.0048479363322257996 -4.617296508513391E-5 0.004725981038063765 -0.0035855015739798546 -3.720156382769346E-4 0.002699143486097455 -0.005234221927821636 -0.004668711684644222 -0.002942157443612814 0.0011754789156839252 0.004705509636551142 0.002658173907548189 -0.004281662870198488 -0.004601730033755302 -0.005978967994451523 5.926213343627751E-4 -0.002737990813329816 0.0023363023065030575 -0.003222275525331497 0.005268443841487169 -0.0026426156982779503 -0.0057291253469884396 -0.0035960334353148937 -0.0026943334378302097 -0.004325751680880785 0.00545513303950429 0.002021168125793338 -0.004104925319552422 -0.0025180731900036335 -0.002629798837006092 -0.003532429225742817 0.002528843469917774 0.0029777176678180695 3.570746921468526E-4 0.0028189881704747677 0.004514631815254688 0.0053964643739163876 0.0021192561835050583 -0.00505222799256444 -0.0031887241639196873 -0.0037594849709421396
himself -0.0012332545593380928 0.016715960577130318 -0.0036636849399656057 -0.01302125584334135 0.008928319439291954 4.939919454045594E-4 0.008192740380764008 -0.005543883424252272 0.013255177065730095 -0.0057980758138000965 -0.0017037687357515097 0.010126856155693531 -0.01331199798732996 0.0213045421987772 -0.01954709365963936 -0.014896109700202942 -0.011267107911407948 0.0018323890399187803 0.00271694827824831 0.003507189452648163 -0.028074288740754128 0.004207428079098463 0.026274709030985832 0.01782391034066677 0.015399158000946045 -0.013353941962122917 0.01678365282714367 -0.01509797666221857 -0.008227274753153324 0.0031570394057780504 0.014657257124781609 -0.010504582896828651 0.02691660076379776 -0.015398742631077766 0.0034397144336253405 -0.019264938309788704 -0.0183548741042614 -0.007317941635847092 0.01395053043961525 0.02287142537534237 -0.004061950370669365 0.008208389393985271 0.007947992533445358 -0.013163839466869831 -0.0049912589602172375 -0.0018911107908934355 -0.006270961370319128 0.0129949189722538 0.016583029180765152 -0.014331539161503315 -0.004715614952147007 0.0069435094483196735 -0.0032587433233857155 0.01170864887535572 0.003399146720767021 -0.008691588416695595 0.014866410754621029 -0.01625983789563179 -0.0011127118486911058 -0.005632723681628704 -0.009471602737903595 0.009778842329978943 -0.009056576527655125 -0.008554160594940186 0.03115190379321575 -0.007501851301640272 -0.002869719872251153 0.005678482819348574 -0.021111899986863136 -0.022902345284819603 -0.012915230356156826 -0.0030986617784947157 -0.0014038700610399246 -0.005517500918358564 0.024831436574459076 5.524035077542067E-4 0.005231894552707672 0.03275420516729355 0.004527359735220671 0.008262557908892632 0.019176704809069633 -0.024809088557958603 1.5753933985251933E-4 0.03141900897026062 -0.017308713868260384 -5.663529736921191E-4 -0.012622998096048832 -0.016431627795100212 -0.0023187361657619476 -0.007004436571151018 0.016592836007475853 -0.006023793015629053 0.022393951192498207 -0.002187342382967472 -0.003028620732948184 -6.638381746597588E-4 -0.003972326405346394 -0.0032211728394031525 -0.010110448114573956 -0.016747569665312767
as -4.475741006899625E-4 0.009820928797125816 8.771232096478343E-4 -0.002753516659140587 -6.433525122702122E-4 0.0072146509774029255 -0.005767307244241238 2.2819801233708858E-4 0.002932271221652627 -0.006583974696695805 0.010358355939388275 0.003794176271185279 -0.00430150656029582 1.5410334162879735E-4 -0.002187927719205618 -0.006435394752770662 0.0013770749792456627 0.0037506918888539076 -1.9699409313034266E-4 0.007860220968723297 -0.0015863077715039253 0.010024167597293854 0.010234604589641094 -0.00105159857776016 0.0032274990808218718 -0.003913948778063059 -0.0025575978215783834 -0.004791167099028826 0.00789487361907959 -5.199663792154752E-5 0.0012750286841765046 -0.008098707534372807 0.009421201422810555 -0.010838386602699757 0.008288429118692875 -0.00863204337656498 -0.007940665818750858 -1.7000157095026225E-4 0.0011853851610794663 0.0036308439448475838 -0.005897844210267067 -0.0021181111223995686 0.0064767166040837765 -0.003095353255048394 0.006216217763721943 0.006466525141149759 -0.005399640183895826 0.002237683394923806 0.005272916052490473 -0.008993597701191902 -0.003021140117198229 -0.001228071516379714 -0.00390105159021914 0.0010522796073928475 0.0060981460846960545 -0.007296668365597725 0.001785188913345337 -0.005322788842022419 0.001869360450655222 0.003302876139059663 -0.008259681984782219 -1.295518595725298E-4 -3.690491139423102E-4 -0.006641484331339598 0.014359090477228165 0.00521773099899292 -0.00413126265630126 0.0035474076867103577 -0.007403787225484848 -0.008369427174329758 -0.007640092168003321 -4.853711288888007E-6 0.004842107649892569 0.0016349197831004858 0.0057321167550981045 7.781797903589904E-4 0.004516362678259611 0.00859032105654478 0.0020055954810231924 0.0031313051003962755 0.004609077703207731 -0.004320941399782896 8.132774382829666E-6 0.009334889240562916 0.0024318962823599577 0.00470174802467227 -0.0017986990278586745 -0.008911365643143654 -7.3463925218675286E-6 -8.90935305505991E-4 -0.001203926745802164 0.0011239988962188363 0.007854139432311058 -0.0019089794950559735 -0.002878474770113826 -0.006356269586831331 -3.5506609128788114E-4 0.0018346993019804358 -0.0018117239233106375 -0.003024374833330512
at -0.00981088075786829 0.014137518592178822 -0.0022755505051463842 -0.002881587017327547 0.0047042579390108585 0.013049882836639881 -0.001034076209180057 -0.009344768710434437 -0.002545375609770417 0.004666144959628582 0.007855558767914772 0.008556466549634933 -0.01231257151812315 0.012135461904108524 -0.001346947392448783 -0.0012074115220457315 -0.0035873539745807648 0.002119861776009202 0.007213071919977665 1.4071496843826026E-4 -0.017626222223043442 0.005735581275075674 0.003511451417580247 0.006045748479664326 0.007857031188905239 0.0039688837714493275 -0.002049010945484042 -0.003017126815393567 0.003172643482685089 -0.009800641797482967 -0.0026153288781642914 0.001698312466032803 0.0030352650210261345 -0.016846468672156334 -0.0012089009396731853 -0.011306592263281345 -0.0017514179926365614 -0.0053076897747814655 0.003267144551500678 0.012200705707073212 -0.0018017099937424064 0.004756254609674215 0.010503103025257587 -0.007398857269436121 -0.0051555694080889225 -0.004133501555770636 -0.016456983983516693 -0.0013532321900129318 0.012586521916091442 -0.0034573390148580074 -0.002466791309416294 0.008701958693563938 0.0020913337357342243 0.001253281719982624 0.011785738170146942 4.056879843119532E-4 0.009834207594394684 -0.00756794074550271 0.0045983074232935905 4.501684452407062E-4 -0.006135488860309124 0.0032263498287647963 0.0020810815040022135 -0.016400128602981567 0.021652640774846077 -0.011995987966656685 -0.004474672023206949 2.26855423534289E-4 -0.012799478136003017 -0.012019871734082699 -0.01651352271437645 -3.177441540174186E-4 -0.0076779769733548164 0.0013264920562505722 0.0105377696454525 -0.006119281053543091 0.011569603346288204 0.0036844932474195957 0.0031531837303191423 0.0054250918328762054 0.00508267292752862 -0.01005692407488823 0.0038897539488971233 0.020782778039574623 0.0012851591454818845 -4.814063722733408E-4 -0.004132489673793316 -0.0020765657536685467 -0.012049593962728977 -0.008235062472522259 0.011295927688479424 -8.450622408417985E-5 0.012202765792608261 -0.0019261854467913508 -0.0025516641326248646 -0.00930099282413721 -0.004340251442044973 0.012136082164943218 -0.0105417026206851 -0.013770923018455505
plans -0.004695892333984375 -0.0059392936527729034 -0.004394744988530874 0.0029715695418417454 9.287696448154747E-4 -0.0012379763647913933 0.002792865037918091 -0.003308609826490283 -0.003984216134995222 1.1168028868269175E-4 -0.005714823957532644 0.0020033803302794695 0.0024551809765398502 -0.002275995910167694 0.002682905178517103 -0.0013951442670077085 -0.0017447149148210883 0.002765981713309884 7.67106597777456E-4 7.505977409891784E-4 0.002554509788751602 -0.005240883678197861 -8.046613074839115E-4 -0.0032891882583498955 -0.005523658357560635 0.003196371253579855 0.002283848589286208 0.0032633731607347727 -0.0027509848587214947 -0.0011798201594501734 0.0034763477742671967 0.004854281898587942 -0.0011412849416956306 -3.0395525391213596E-4 -0.00476478086784482 -0.0019348182249814272 -6.858018459752202E-4 0.0038204656448215246 0.0032243889290839434 -1.3380694144871086E-4 8.880195091478527E-4 9.622033685445786E-4 6.118148448877037E-4 0.004309096839278936 -0.0010571270249783993 0.003637088695541024 0.0028026921208947897 0.0044951122254133224 -0.0033345669507980347 0.001650331192649901 0.004493117332458496 5.142561276443303E-4 9.102969197556376E-4 7.039620541036129E-4 8.972983341664076E-4 4.2474010842852294E-4 -6.177211762405932E-4 9.158304310403764E-4 -0.001607731799595058 7.62556737754494E-4 -0.004013745114207268 -0.006031046621501446 0.0011361773358657956 0.0028875945135951042 -9.728708537295461E-4 0.0028628751169890165 -0.0034777955152094364 0.0016155327903106809 -6.011099903844297E-4 0.005478702485561371 0.0035932965110987425 0.0027867411263287067 3.486891509965062E-4 -0.0035204885061830282 -0.004279730375856161 3.040598821826279E-4 -0.006078001111745834 -7.691635983064771E-4 -2.986575709655881E-4 -0.0051248339004814625 0.0015690864529460669 0.005407583899796009 4.379397432785481E-5 -0.001429454074241221 1.9178816000930965E-4 -0.0019232918275520205 0.0020269921515136957 0.006059824489057064 0.004920568782836199 0.005208838265389204 0.00331140891648829 -5.273943534120917E-4 -0.0055521572940051556 -0.00463103549554944 -0.0018900061259046197 0.001285310834646225 -3.690619778353721E-4 6.790711195208132E-4 0.0017173190135508776 0.004421519581228495
drive 0.0020854505710303783 0.004221752285957336 0.005226175766438246 0.0032809958793222904 0.004647975787520409 -0.007779169827699661 -0.0039340900257229805 -0.0023665032349526882 0.004138187039643526 -0.0017996721435338259 0.0020328215323388577 -0.0036993396934121847 0.004040067084133625 0.0035373049322515726 0.00527357729151845 0.005035522859543562 0.0037348121404647827 0.004216711036860943 -0.003959103487432003 0.004497930873185396 -0.0014964547008275986 0.0018069676589220762 0.004473188426345587 0.002272044774144888 -0.0036454859655350447 4.571001627482474E-4 -8.021874818950891E-4 0.0033833342604339123 0.004590126220136881 4.314792458899319E-4 0.0013009596150368452 -3.981008194386959E-5 0.00206188322044909 0.0027797878719866276 6.946237408556044E-4 0.003820228623226285 -3.987937525380403E-4 -0.0014742466155439615 -0.002759927650913596 -0.004105167929083109 -0.0042632948607206345 0.0022411574609577656 0.001031025662086904 0.002800078596919775 0.004228027071803808 -0.0048667797818779945 0.007298101205378771 -4.644867731258273E-4 -0.006426351144909859 -6.344863795675337E-4 8.727615932002664E-4 -0.0013910819543525577 0.001564247882924974 0.004671142436563969 -0.005800081416964531 -0.004549253731966019 -0.004908430855721235 0.00502269621938467 -4.5366439735516906E-4 0.005176151636987925 0.0032339838799089193 -0.002164347330108285 -0.002783440286293626 -0.0019498784095048904 -0.002878929954022169 9.477855637669563E-4 0.002895751968026161 0.002364478074014187 0.0012242000084370375 -0.003967867232859135 0.00623498298227787 1.7183595628011972E-4 -5.096005625091493E-4 -0.0014295252040028572 -0.002185538876801729 -0.004932147916406393 -0.006007647141814232 -0.003971967846155167 -0.003775462042540312 -2.660240279510617E-4 -0.0053040278144180775 -0.0025096230674535036 -0.0013701231218874454 -0.0034880866296589375 -0.00435303058475256 -8.053437923081219E-4 -2.776124165393412E-5 0.0016793920658528805 -0.0027066979091614485 0.0017968739848583937 0.0039040441624820232 0.0021877845283597708 8.99751961696893E-4 1.4100756379775703E-4 -0.00407978193834424 -0.0025637655053287745 0.0029685255140066147 -0.005598907824605703 -0.002002045977860689 0.0034776385873556137
kidnapped -0.004002666566520929 0.021927375346422195 -0.006273200735449791 -0.009501365944743156 0.009316773153841496 -0.0028011328540742397 0.010448927991092205 -0.009540670551359653 0.011633487418293953 -0.003947507590055466 -0.0072808051481842995 0.015107044018805027 -0.02132677100598812 0.027490228414535522 -0.019336175173521042 -0.019268911331892014 -0.010510738007724285 0.010049224831163883 0.01965811476111412 -0.011304385028779507 -0.0371926911175251 -0.00181999197229743 0.02856750600039959 0.020364167168736458 0.015518072992563248 -0.029766550287604332 0.017932288348674774 -0.019557282328605652 -0.011719057336449623 -0.0017082710983231664 0.019525524228811264 -0.01633916236460209 0.034243661910295486 -0.022867338731884956 0.002393360249698162 -0.025128252804279327 -0.021073248237371445 -0.004741454031318426 0.023906610906124115 0.031148076057434082 -0.013072706758975983 0.00799458846449852 0.015516772866249084 -0.017897360026836395 -0.0102302934974432 -0.007118844892829657 -0.014645479619503021 0.01823614537715912 0.030909443274140358 -0.008526142686605453 -0.011367921717464924 0.00693801324814558 -0.001668433309532702 0.010788600891828537 0.009303680621087551 -0.013094757683575153 0.031116941943764687 -0.030012767761945724 -0.004244167823344469 -0.012602778151631355 -0.011943734250962734 0.01645072177052498 -1.4454286429099739E-4 -0.01374485157430172 0.041419629007577896 -0.013520291075110435 -0.007148490287363529 0.012280006892979145 -0.031377099454402924 -0.03936793655157089 -0.01725291647017002 -0.005053794477134943 -0.008652198128402233 -0.0027578717563301325 0.026904717087745667 0.001528940862044692 0.0134656997397542 0.03850400820374489 0.012585493735969067 0.004757252521812916 0.020849617198109627 -0.030023276805877686 -0.006274019833654165 0.04983793944120407 -0.02086673490703106 0.0038054115138947964 -0.012968510389328003 -0.011305481195449829 -0.006666550412774086 -0.019949685782194138 0.01919502764940262 -0.004207716789096594 0.024298567324876785 -0.00448923883959651 0.010932481847703457 0.001120854401960969 2.806470438372344E-4 0.003791250754147768 -0.0011151885846629739 -0.02193487621843815
rs -0.006603130605071783 0.028499135747551918 -0.003931290935724974 0.004976598080247641 0.005143021699041128 -0.0025216746143996716 -0.010081099346280098 -0.018060699105262756 0.01144384779036045 -0.011277364566922188 0.018493829295039177 0.0023428688291460276 -0.030769478529691696 0.01876496896147728 -0.014272604137659073 -0.013582739047706127 -0.0012481207959353924 -4.738143179565668E-4 0.015217174775898457 0.0015257628401741385 -0.028826190158724785 0.00712957140058279 0.019326291978359222 0.019161613658070564 9.430631180293858E-4 -0.00498790992423892 -0.0012794891372323036 -0.0011237136786803603 0.008945455774664879 -0.004056481644511223 0.013054892420768738 -0.014067016541957855 0.011359415017068386 -0.0223452877253294 0.0033300521317869425 -0.02019309252500534 -0.009878644719719887 0.0034624761901795864 0.006268165074288845 0.009132029488682747 -0.01563049480319023 0.017523588612675667 0.010920602828264236 -0.009001519531011581 0.004753511399030685 -4.098441859241575E-4 -0.019833989441394806 -0.01180597860366106 0.017422592267394066 -0.009616602212190628 -0.003638617228716612 0.011457612738013268 0.0046966783702373505 0.002577525796368718 0.004846199415624142 -0.003018046962097287 0.017211025580763817 -0.01161129865795374 0.002470345003530383 0.009544546715915203 -0.006390694063156843 0.016892842948436737 -0.011923597194254398 -0.025680633261799812 0.03476039692759514 -0.009129920974373817 -0.0013037651078775525 -0.004265756346285343 -0.03032841719686985 -0.020890913903713226 -0.01591612584888935 -6.618602783419192E-4 -9.652377921156585E-4 -0.004746159538626671 0.03513731434941292 -0.0179628673940897 0.013193764723837376 0.03392777591943741 0.006498019210994244 -0.0015266642440110445 0.005026395432651043 -0.0264531672000885 -0.006873427890241146 0.025928115472197533 0.0038428690750151873 -0.01378565188497305 -0.014328764751553535 -0.026074789464473724 -0.018675003200769424 -0.004414540249854326 0.013667460530996323 7.350759115070105E-4 0.008151955902576447 -0.005237773526459932 -0.0010272720828652382 2.563381858635694E-4 -0.014404318295419216 0.0019481329945847392 -0.014057650230824947 -0.010390532203018665
be 0.006913149729371071 -0.007161550689488649 -0.007693879771977663 -9.194532176479697E-4 -0.0015283982502296567 -0.012041695415973663 0.008691059425473213 0.003762124804779887 -0.0037372950464487076 0.011380604468286037 -0.029428590089082718 -0.0025074335280805826 0.010182534344494343 6.570919067598879E-4 -0.004796563182026148 -0.00487769627943635 -0.003309001214802265 0.0010216766968369484 0.001580482698045671 -0.010595232248306274 0.0045319595374166965 -0.005559314973652363 -0.0013380279997363687 5.501453997567296E-4 0.001273953472264111 -0.01154201291501522 0.012865807861089706 -0.009225016459822655 -0.01612493395805359 0.008417216129601002 0.006572980433702469 -0.00910999532788992 0.007892593741416931 0.017761506140232086 -0.006025996990501881 -0.002013232558965683 -0.003481760621070862 0.009674943052232265 0.003911597654223442 0.007947546429932117 0.017938748002052307 -0.007984733209013939 -0.002631574869155884 -0.0015770673053339124 -5.3329702495830134E-5 -0.01240291353315115 -8.613795507699251E-4 0.004735962487757206 0.013836948201060295 0.0031893597915768623 0.0065864259377121925 -0.010182837024331093 0.0021037980914115906 -0.01287162210792303 -0.003701327368617058 -0.003685467178002 0.006696026306599379 -0.00807377602905035 0.009972741827368736 -0.01185091957449913 0.007570730056613684 6.832236977061257E-5 -1.6753838281147182E-4 0.023988742381334305 -0.007208002265542746 -0.0023346927482634783 0.007747218012809753 0.013565036468207836 0.007996907457709312 -0.012503179721534252 0.006406837143003941 -0.004896610043942928 -0.0014240045566111803 -0.0047689275816082954 -0.01688031665980816 0.00394417904317379 -0.015851421281695366 -0.013275367207825184 -0.008759044110774994 -0.0016728423070162535 8.504650904797018E-4 0.00581620866432786 -0.008418215438723564 -0.0028530051931738853 -0.006764702498912811 0.005595550872385502 0.0017886589048430324 0.02001067064702511 0.003122123423963785 -0.0013585357228294015 -0.005814708303660154 -0.014632009901106358 0.001778105041012168 -7.730760262347758E-4 0.012253299355506897 0.010802756994962692 0.008845189586281776 0.0045685796067118645 0.018673526123166084 -0.006972441449761391
role 4.836320294998586E-4 0.00317193940281868 -0.002739415969699621 5.02041366416961E-4 -0.0011547552421689034 -0.001308763399720192 0.010147660970687866 -0.002236103406175971 -5.825216067023575E-5 -4.454014415387064E-4 -0.00986102968454361 0.0035728684160858393 -0.0027137971483170986 0.004161398392170668 -0.005516743287444115 -0.009445106610655785 -0.00844472274184227 -0.0015297264326363802 0.0051922183483839035 -0.004185731988400221 -0.008162706159055233 9.533684933558106E-4 0.006099673919379711 0.002267576288431883 0.007680080831050873 -0.014130468480288982 0.003943450748920441 -0.009761073626577854 -0.00978019181638956 -0.002351004397496581 0.0017543290741741657 -0.007885893806815147 0.011725018732249737 -0.0026100841350853443 0.004952313844114542 -0.005373809020966291 -0.008928581140935421 -0.004103252664208412 0.006319383624941111 0.01185543742030859 0.004507994279265404 -0.0012382365530356765 0.0019706652965396643 -0.005674807354807854 -0.004412887617945671 4.264113958925009E-4 0.002252495614811778 0.011332920752465725 0.012053534388542175 -0.005753965117037296 -0.00447419099509716 3.3501762663945556E-4 0.0018495116382837296 -0.0013240402331575751 0.0018104359041899443 -0.007643480319529772 0.006006789393723011 -0.005068222992122173 0.003765216562896967 -0.0074504222720861435 0.0010654083453118801 -0.0012149258982390165 -0.001787481945939362 0.0057388171553611755 0.008741085417568684 -0.0016420666361227632 -0.002144817030057311 0.010220778174698353 -0.001649715704843402 -0.01304709818214178 -0.0037593869492411613 -0.0065856995061039925 -0.0037510625552386045 -0.0037756082601845264 -6.17078912910074E-4 -1.2025587784592062E-4 -0.004081269260495901 0.0031881702598184347 0.00553898373618722 -0.0055165644735097885 0.008321852423250675 -0.0033823756966739893 -0.005708714015781879 0.014868910424411297 -0.008851475082337856 0.005989894270896912 -0.0019469755934551358 0.004880613647401333 0.0026688827201724052 -0.0041236127726733685 0.006274282932281494 -0.004446215927600861 0.012148501351475716 -2.670730173122138E-4 0.007904949598014355 0.004329826682806015 -0.0020452060271054506 -0.004306080751121044 -6.280722445808351E-4 -0.008231923915445805
scheme 0.003237407421693206 0.008445745334029198 0.009374809451401234 -8.796522160992026E-4 -0.0018568710656836629 0.009691266342997551 -0.00823967531323433 -0.008360967971384525 -0.003689398756250739 0.0013749063946306705 0.016187945380806923 0.0032862783409655094 -0.0012527640210464597 -4.6181396464817226E-4 0.004440192598849535 0.003717178711667657 0.003039364004507661 -0.0019342130981385708 -0.0013521348591893911 0.008739014156162739 0.005280307959765196 0.00612744502723217 0.0038495375774800777 0.00110814836807549 -0.0038745668716728687 0.006247294135391712 -0.00901387631893158 0.00377696193754673 0.008245417848229408 -0.0014238449512049556 -0.013070106506347656 0.0018397850217297673 -0.004619141574949026 -0.005852718371897936 0.004120036493986845 0.0035885125398635864 0.0020157238468527794 -0.008514173328876495 -0.004974633455276489 -0.006644900422543287 -0.00647447444498539 -8.190767839550972E-4 0.003191333496943116 -1.9742062431760132E-4 -0.0029234294779598713 -0.0010335328988730907 -0.0013588329311460257 -0.01153738982975483 -0.0020237776916474104 0.005245596636086702 0.006366001442074776 0.0025234080385416746 4.379864258226007E-4 -4.115060728508979E-4 -0.0021449027117341757 0.005588080268353224 -0.0039220754988491535 0.0013381332391873002 -0.005520949140191078 0.006112799514085054 -0.008275296539068222 -0.004817365203052759 -0.0020511006005108356 -0.01955910213291645 0.007300402969121933 0.0019543394446372986 0.005070157814770937 -7.28630053345114E-4 -0.009702351875603199 0.005375784821808338 0.0024177534505724907 0.008963310159742832 0.001037050038576126 0.004842614755034447 0.010338113643229008 -0.0014252382097765803 0.014119718223810196 0.0036973832175135612 0.00389441242441535 0.00730601791292429 -3.504799387883395E-4 -0.002685086103156209 0.0017011226154863834 -0.007645550649613142 -4.330722731538117E-4 -0.010246118530631065 -0.004503797739744186 -0.009084975346922874 -0.008042346686124802 0.004981228616088629 0.0061663296073675156 0.005627157166600227 -9.465756011195481E-4 0.005334382876753807 -0.0055389381013810635 -0.004857294727116823 -0.0011059672106057405 -8.426904969383031E-7 -0.009571225382387638 0.0100473677739501
another 7.732912781648338E-4 0.018037395551800728 -0.010086260735988617 -0.003371957689523697 0.012317359447479248 -0.001503471750766039 0.013936405070126057 -0.01439610868692398 0.006928769405931234 0.0017621766310185194 -0.015412543900310993 0.008702019229531288 -0.015345261432230473 0.020722856745123863 -0.014338750392198563 -0.020076697692275047 -0.009210340678691864 0.002222298877313733 0.018574869260191917 -0.008215666748583317 -0.023266011849045753 -0.008232968859374523 0.016782307997345924 0.019595051184296608 0.016431771218776703 -0.016243960708379745 0.011892878450453281 -0.019346700981259346 -0.013586130924522877 8.734222501516342E-4 0.012224978767335415 -0.01796961948275566 0.01952642947435379 -0.01418102066963911 0.0053087216801941395 -0.015358134172856808 -0.007948371581733227 7.864240615162998E-6 0.025677818804979324 0.027928145602345467 -0.0036672495771199465 -0.0023348990362137556 0.009340046904981136 -0.006440414115786552 -0.0037268460728228092 -0.006866726092994213 -0.012715748511254787 0.01889176294207573 0.030732300132513046 -0.009918943978846073 -0.009537382051348686 -0.002565144095569849 0.0014835125766694546 0.004935798235237598 0.003830211702734232 -0.007455585990101099 0.017446070909500122 -0.024341188371181488 0.006005453411489725 -0.009892912581562996 -8.136564865708351E-4 0.008336075581610203 0.005920935422182083 -7.710052304901183E-4 0.0256669782102108 -0.00974434707313776 -0.01132374256849289 0.012396931648254395 -0.007801121100783348 -0.032235030084848404 -0.01492956094443798 -0.0020286079961806536 -0.005850466433912516 -0.01288906391710043 0.01961127668619156 0.00352135905995965 5.586096667684615E-4 0.01780625246465206 0.005153217352926731 1.8502822058508173E-5 0.020081164315342903 -0.017115039750933647 -0.004234707914292812 0.03719747066497803 -0.017442720010876656 0.00537272309884429 -0.01298732589930296 -0.008249565958976746 2.3910062736831605E-5 -0.01767851784825325 0.013398949056863785 -0.005945771932601929 0.022896459326148033 -0.009514630772173405 0.017047716304659843 0.004944736137986183 -0.0011611884692683816 4.227672761771828E-4 0.006354045122861862 -0.022472018375992775
dead 0.005419658962637186 0.009052243083715439 -4.2440296965651214E-4 -0.0017087517771869898 0.01028961781412363 -0.0031103589572012424 0.0027749689761549234 -0.0038009588606655598 0.009758595377206802 0.005171833094209433 -0.0122070899233222 0.004916270263493061 -0.005878427531570196 0.006527019664645195 -0.012663218192756176 -0.011663061566650867 -0.008164074271917343 -2.4982000468298793E-4 0.010763080790638924 -0.009518131613731384 -0.013410956598818302 -9.90348169580102E-4 0.010345280170440674 0.015449047088623047 0.007524159736931324 -0.015243981033563614 0.012732477858662605 -0.01216655783355236 -0.004100400488823652 0.002353568561375141 0.005094738211482763 -0.008254985325038433 0.02044801600277424 3.405440365895629E-4 0.0032014078460633755 -0.010570963844656944 -0.0061905221082270145 7.973097963258624E-4 0.014172711409628391 0.01861738972365856 -4.000535700470209E-4 4.573806654661894E-4 0.007844819687306881 -0.00644995691254735 -0.008398708887398243 -0.0017432903405278921 6.538820452988148E-4 0.00901657622307539 0.016847791150212288 -0.002506275661289692 -3.5139176179654896E-4 -0.0025003908667713404 -0.0023528069723397493 -3.458503633737564E-4 0.0055320607498288155 -0.002205959055572748 0.007867359556257725 -0.006960486993193626 -0.005115944426506758 -0.011491105891764164 -0.0016828186344355345 0.0055536492727696896 -0.002260649809613824 -6.176774622872472E-4 0.011248377151787281 -0.005061691626906395 -0.005553008057177067 0.011495127342641354 -0.002073330106213689 -0.014820178970694542 -0.006577695719897747 -0.00795263797044754 -0.0053692711517214775 -0.009722625836730003 0.002874455414712429 0.004542213398963213 0.00515143433585763 0.01199372112751007 0.0036865882575511932 -0.0017889339942485094 0.012809271924197674 -0.009370996616780758 0.0017178423004224896 0.013228385709226131 -0.012684540823101997 0.0069725401699543 -0.005730603821575642 0.004665019456297159 3.887143393512815E-4 -0.01180251594632864 0.006920633837580681 -0.012874683365225792 0.01650838926434517 -0.007911867462098598 0.011466114781796932 4.4518575305119157E-4 -0.002102799713611603 2.9596651438623667E-4 0.004228729289025068 -0.007863545790314674
liquor 0.004719643387943506 -0.01574639044702053 0.0017460689414292574 0.00886985007673502 -0.007940606214106083 -0.008843425661325455 -0.0022662023548036814 0.0037862444296479225 -0.0017186288023367524 -0.001709984615445137 3.248965076636523E-4 -1.3524797395803034E-5 0.010337352752685547 -0.012282284907996655 0.005036169197410345 0.0072975666262209415 0.005157226696610451 0.002244324656203389 -0.006028113886713982 -0.001856276299804449 0.01386280357837677 -0.0012734399642795324 -0.007274244911968708 -0.00700803380459547 -0.00199349713511765 0.012045653536915779 -0.0044647883623838425 0.004178707953542471 0.0014271558029577136 0.00461605004966259 -0.0058902655728161335 0.006101529113948345 -0.0148356594145298 0.007959108799695969 -0.008260059170424938 0.007723846472799778 -1.783960178727284E-4 4.029459087178111E-4 -0.007587756495922804 -0.011508517898619175 0.006142903119325638 0.0017006013076752424 -0.004862782079726458 0.004918717313557863 0.00513086561113596 0.006532794795930386 0.010268517769873142 8.706062799319625E-4 -0.006482306867837906 0.011808001436293125 0.005677332635968924 0.0012250649742782116 -0.0037530174013227224 8.940027910284698E-4 -0.005842958111315966 0.008083410561084747 -0.006617183797061443 0.009636128321290016 0.008357072249054909 -0.0037418652791529894 9.705434204079211E-4 -0.002854099730029702 -2.816435298882425E-4 0.002712633227929473 -0.017546316608786583 -1.584752171766013E-4 0.004951572511345148 -0.00426997197791934 0.00816540140658617 0.010365260764956474 0.0016246612649410963 0.008143736980855465 0.0024073177482932806 -0.0024531553499400616 -0.011826878413558006 -0.0022512825671583414 -0.009177240543067455 -0.008987419307231903 -0.006527318619191647 -0.007298988755792379 -0.014171283692121506 0.013814783655107021 -0.004714693408459425 -0.011960286647081375 0.007328422740101814 -0.0014695924473926425 0.005772689823061228 0.0014161181170493364 1.869602274382487E-4 0.004628988914191723 -0.006592169404029846 0.003620914649218321 -0.004802463110536337 0.0029823221266269684 0.00497865304350853 0.006512730848044157 -0.003821880789473653 -0.009345630183815956 0.0032978986855596304 0.005094226915389299
two 0.0028015589341521263 0.022607488557696342 -0.005529426038265228 -0.015283413231372833 0.01281464658677578 0.002459438983350992 0.013586764223873615 -0.008406922221183777 0.010027347132563591 0.0011489917524158955 -0.008988948538899422 0.00471082329750061 -0.017035650089383125 0.016892727464437485 -0.017388418316841125 -0.011765553615987301 -0.013165732845664024 0.00634410884231329 0.005988738499581814 -0.0029453635215759277 -0.02772579900920391 -0.0026910381857305765 0.026437081396579742 0.020192107185721397 0.013478053733706474 -0.028933102265000343 0.021939406171441078 -0.021413853392004967 -0.01083426270633936 -0.002379243029281497 0.0129398163408041 -0.022233687341213226 0.039039675146341324 -0.014825762249529362 0.00734699796885252 -0.01666317880153656 -0.021552270278334618 -7.187672890722752E-4 0.021951811388134956 0.035225413739681244 -0.00834271963685751 0.002615060657262802 0.013495256192982197 -0.014953412115573883 -0.0027490390930324793 -0.01056894101202488 -0.006314773112535477 0.014812067151069641 0.020055221393704414 -0.009073144756257534 -1.0526624828344211E-4 -9.943416807800531E-4 -0.0018720690859481692 0.007862959057092667 0.004855045583099127 -0.016000473871827126 0.025325367227196693 -0.01726803183555603 -0.006817794404923916 -0.006562605034559965 -0.00857300590723753 0.013389547355473042 0.0018532794201746583 7.871981943026185E-4 0.026955289766192436 -7.515178876928985E-4 -0.010972444899380207 0.008474360220134258 -0.01935880444943905 -0.03649517521262169 -0.013881807215511799 -0.006681915372610092 -0.005337858106940985 0.0015273774042725563 0.022504912689328194 0.008069095201790333 0.002829201053828001 0.028672320768237114 0.004448454361408949 0.002266272436827421 0.028406228870153427 -0.027286777272820473 -0.0020480528473854065 0.04112422093749046 -0.023136556148529053 0.007991201244294643 -0.009931475855410099 -0.010656479746103287 -8.917473605833948E-4 -0.01701596938073635 0.014037193730473518 -0.006588377524167299 0.02691074088215828 -0.012569045647978783 0.012554395943880081 0.001404167851433158 -0.002124633640050888 0.0012856145622208714 0.0034507664386183023 -0.022948065772652626
into -0.002921726554632187 -1.561835961183533E-5 0.001038223970681429 -0.005451589822769165 -0.0014667416689917445 -8.083252469077706E-4 7.02878343872726E-4 5.136692780070007E-4 -0.0018797593656927347 -0.008255605585873127 0.0036240906920284033 -0.0031447766814380884 -0.003295853268355131 -0.0014180075377225876 -0.002954206895083189 0.0010065007954835892 0.0011397916823625565 8.952645293902606E-5 -4.8195806448347867E-4 0.006717036012560129 -4.1417410830035806E-4 -0.0010439574252814054 0.006083081942051649 0.0031717196106910706 0.005054152570664883 0.0014924993738532066 -0.002186123514547944 0.0034812188241630793 0.004482080228626728 -0.004001925699412823 -0.002076120814308524 0.0036667948588728905 0.008494410663843155 -0.006054808385670185 8.672456606291234E-4 0.0019348060013726354 -0.004628943279385567 -4.890912096016109E-4 -0.0011285999789834023 0.0013344483450055122 -0.0042346445843577385 0.0027861588168889284 -0.0020606883335858583 0.002150770742446184 0.004620824009180069 3.4625764237716794E-4 3.865693579427898E-4 0.0011732771527022123 0.0015512362588196993 -0.0071779536083340645 -0.004665702115744352 0.0062166620045900345 -0.0018692531157284975 0.001508292625658214 -0.0020345088560134172 0.0026583250146359205 -9.609034896129742E-5 0.0011633159592747688 -0.006361053325235844 -0.0011283255880698562 -0.007002097554504871 -9.070201776921749E-4 -0.0033610507380217314 -0.008174611255526543 -4.577258077915758E-4 -0.0028968236874789 -0.00514147849753499 -0.002916220808401704 -0.00750871142372489 -0.0023975360672920942 -0.0033650004770606756 -0.003437979379668832 -0.00400357972830534 0.0036268550902605057 5.931910127401352E-4 -0.002922522136941552 0.0026783098001033068 0.003203348256647587 0.0035302559845149517 0.0034900917671620846 0.0023650347720831633 -0.008006885647773743 0.005093955434858799 0.0017506253207102418 0.003993181977421045 0.002687090076506138 -8.41901171952486E-4 -0.002763297874480486 -0.0058629484847188 0.004256927873939276 0.001345984754152596 0.004380886908620596 -3.1191506423056126E-4 -3.278049116488546E-4 -0.004037278238683939 0.0021823011338710785 0.0028389529325067997 0.0014269216917455196 -3.231835435144603E-4 0.0025634425692260265
aap -0.007954606786370277 0.010949915274977684 0.005869059823453426 -0.0027152844704687595 0.0025263065472245216 0.00963989831507206 -0.011227305978536606 -0.007641508709639311 -7.695138338021934E-4 -0.013375576585531235 0.018778301775455475 -0.0011580187128856778 -0.007954607717692852 0.004924168810248375 -0.0026711495593190193 7.26142548955977E-4 -0.003211823059245944 -0.003811378963291645 -0.0054956707172095776 0.006250027567148209 -0.007241381332278252 0.0070764911361038685 0.014547747559845448 -0.0033480387646704912 0.002780596725642681 -0.0044450704008340836 0.001160185900516808 -4.5750704884994775E-5 0.007532387040555477 -0.0012286121491342783 -0.0011388540733605623 -0.006222404073923826 0.010778798721730709 -0.014983820728957653 0.0067828502506017685 -0.0033579173032194376 -5.910056643188E-4 -0.005469367839396 0.0034653483889997005 0.0012970298994332552 -0.0081023583188653 -0.0013191779144108295 8.407278219237924E-4 -0.003457952756434679 -0.002281853463500738 0.003989436663687229 -0.0013358783908188343 6.50684058200568E-4 -7.228784961625934E-4 -0.006767054554075003 -0.0014978143153712153 0.0028223590925335884 0.0026347546372562647 0.0059558129869401455 0.004762676544487476 -0.001365869538858533 0.0077939582988619804 -0.003323363373056054 -0.007786306086927652 0.003273203270509839 -0.005904960911720991 0.006946503650397062 -0.004882446490228176 -0.012532936409115791 0.009683296084403992 2.8888267115689814E-4 0.0041612861678004265 -0.0019782292656600475 -0.016970276832580566 4.846551746595651E-4 -0.0021881319116801023 9.520486346445978E-4 -0.0010348950745537877 0.010960794053971767 0.01567799411714077 -4.987377324141562E-4 0.008257071487605572 0.01444487739354372 0.0010461481288075447 0.008825631812214851 0.013100900687277317 -0.01449866034090519 0.0031892850529402494 0.009561503306031227 -0.0018419999396428466 0.005196554120630026 -0.006978548597544432 -0.013868111185729504 -0.009519597515463829 -0.0025588299613445997 0.004381249658763409 0.006362789310514927 0.0071426331996917725 0.0039437441155314445 -0.013675084337592125 -0.00939706340432167 -0.002664098748937249 0.0039174784906208515 -0.012483087368309498 -0.003285774728283286
rape -2.0900533127132803E-4 0.01728183589875698 -0.0019426899962127209 -0.00571751594543457 0.012796662747859955 0.005797413177788258 0.006974195130169392 -0.006301754619926214 0.008793115615844727 -0.005517636891454458 -0.001248799730092287 0.010458284988999367 -0.014143803156912327 0.019980594515800476 -0.01662716083228588 -0.008180161938071251 -0.009201716631650925 0.006964637897908688 0.011689785867929459 -0.005711122881621122 -0.022437933832406998 0.006331914104521275 0.017703818157315254 0.01000369805842638 0.01324367243796587 -0.021700052544474602 0.013684902340173721 -0.014502465724945068 -0.007891328074038029 -0.003762064501643181 0.007152169477194548 -0.016684887930750847 0.030235812067985535 -0.012788534164428711 0.0019277302781119943 -0.01172957569360733 -0.011474954895675182 -9.292470058426261E-4 0.016441255807876587 0.024519864469766617 -0.0011231821263208985 1.769127993611619E-4 0.012050719000399113 -0.011470673605799675 -0.0062340120784938335 -0.01056686881929636 -0.007829991169273853 0.015031440183520317 0.015305682085454464 -0.005612659268081188 -8.624349720776081E-4 0.005832355003803968 -0.004644930828362703 0.004589242860674858 0.009460887871682644 -0.01219640951603651 0.01828407309949398 -0.013217199593782425 -0.0051955790258944035 -0.009108927100896835 -0.011331362649798393 0.011768528260290623 -0.006874884944409132 -0.009681533090770245 0.02918565273284912 4.179055686108768E-4 -0.0010206119623035192 0.0026842637453228235 -0.019764132797718048 -0.0241553895175457 -0.007727588061243296 -0.006360785104334354 -0.0028653971385210752 0.003254803130403161 0.015876324847340584 0.0077316854149103165 0.010685918852686882 0.022880829870700836 0.00758703425526619 0.005066157318651676 0.022696081548929214 -0.021608326584100723 -8.551750215701759E-4 0.03053896687924862 -0.019054632633924484 3.172433061990887E-4 -0.010391883552074432 -0.008493665605783463 -0.002176545327529311 -0.014370959252119064 0.009283633902668953 -0.002429760992527008 0.016714951023459435 -0.0038543061818927526 0.008290667086839676 5.389910656958818E-4 -0.002590611344203353 0.008842885494232178 -1.0849602404050529E-4 -0.01760297641158104
found 0.008411257527768612 0.00281802867539227 -0.0054222517646849155 -0.002221480943262577 0.004551796708256006 -0.005260413978248835 0.005315438844263554 0.0013667597668245435 0.00798056274652481 0.004999110940843821 -0.016529614105820656 0.0035118735395371914 -0.0010468695545569062 0.0029850583523511887 -0.002055899240076542 -0.005874780472368002 -0.0019250028999522328 0.006786877755075693 0.0014721970073878765 -0.007309294305741787 -0.004724404774606228 -0.003877172712236643 0.004836223088204861 0.006869700737297535 0.0010565168922767043 -0.012799909338355064 0.004423003643751144 -0.00423620268702507 -0.006283327471464872 -0.002479022368788719 7.449277472915128E-5 -0.00560717424377799 0.010069070383906364 0.0013431636616587639 0.0012119350722059608 -0.00580616807565093 -0.00348477391526103 -0.001230775029398501 0.0072529250755906105 0.009821759536862373 0.004292510449886322 -0.002170340623706579 0.0015644286759197712 -0.00406707264482975 -0.005059296265244484 -0.0049621714279055595 -5.908822058700025E-4 0.010700861923396587 0.012844494543969631 -0.0034035101998597383 2.196965360781178E-4 -0.006618416402488947 -0.0022143423557281494 0.0024521152954548597 0.0010987629648298025 7.590918685309589E-4 0.007718218024820089 -0.005225319880992174 0.003058572532609105 -4.1796453297138214E-4 -0.0010314987739548087 -0.003863523481413722 0.006607854273170233 0.001567564089782536 0.0038865464739501476 -0.0011630376102402806 -0.003279338590800762 0.0035710157826542854 3.2361928606405854E-4 -0.012686715461313725 -0.0024215744342654943 1.5845689631532878E-4 0.0016822769539430737 -0.009402411989867687 0.004652349278330803 0.0025673636700958014 7.404478965327144E-4 0.0021509781945496798 0.0034250905737280846 8.657766156829894E-4 -7.793472614139318E-4 -0.0012683832319453359 -0.007134322542697191 0.007697239518165588 -4.805496719200164E-4 0.003957985434681177 3.9266119711101055E-4 0.004079499747604132 8.11504723969847E-5 -0.0012225762475281954 0.009309704415500164 -0.009381845593452454 0.0105977738276124 -0.006507561542093754 0.007319560274481773 9.287168504670262E-4 -0.0010630596661940217 -0.006976576987653971 5.88804658036679E-4 -0.005107732955366373
attack 0.002183889504522085 -0.0018909173086285591 0.002253740793094039 2.277941384818405E-4 0.0020255339331924915 -5.721711204387248E-4 0.00306294159963727 0.005311552435159683 -2.70628574071452E-4 -6.149590481072664E-4 -0.00380121311172843 0.0017282123444601893 0.002991581568494439 -0.002386712934821844 -2.211551764048636E-4 -0.0038489329162985086 0.002842261688783765 -0.004779069218784571 -0.0017170925857499242 0.0032109615858644247 0.0010748003842309117 5.079603870399296E-4 -6.526227807626128E-4 -0.0038083267863839865 0.002910523908212781 5.157578270882368E-4 -0.0029075758066028357 -0.005315232090651989 -0.0012832880020141602 8.663561893627048E-4 -5.81638771109283E-4 -0.001122163375839591 -0.0020465997513383627 -0.001469203270971775 0.002516146283596754 -0.004878845997154713 -0.005618089344352484 -0.00217163166962564 -0.00444946251809597 -0.0033693043515086174 0.0020661004818975925 0.0027531213127076626 0.0036813169717788696 0.0016285963356494904 -2.1952395036350936E-4 0.0023452688474208117 -0.002222138922661543 0.005077764857560396 -0.004326686263084412 0.0013139034854248166 -9.827801841311157E-5 -0.0027568701189011335 -0.005180502310395241 0.004012866411358118 -0.0010148206492885947 0.004217466339468956 0.0026147805619984865 6.561306654475629E-4 0.002614288590848446 -0.0023377863690257072 0.0010684168664738536 -0.00365196424536407 -0.004120904486626387 -8.822479867376387E-4 -0.00421741371974349 0.004781163763254881 -0.003780874889343977 -0.0010843854397535324 0.0012445147149264812 -0.0029302111361175776 0.0032114286441355944 -0.0012842173455283046 0.001598220318555832 -9.12729519768618E-5 0.0010154412593692541 0.004413158167153597 0.0012806308222934604 -0.0038425992242991924 -0.001165195251815021 -0.003698018379509449 -0.0038382462225854397 -5.162113811820745E-4 -0.004172284621745348 0.005578998941928148 -0.0061425697058439255 0.0011723159113898873 -0.003084850264713168 0.0010358464205637574 0.003266269341111183 1.6290010535158217E-4 -0.004210988525301218 0.0038528135046362877 0.00544515997171402 -0.005230410490185022 -0.0032159050460904837 -0.0018760757520794868 -5.053074564784765E-4 -0.0028851632960140705 -0.004226096905767918 0.00355631485581398
by 0.004740424454212189 0.031068643555045128 -0.007018283009529114 -0.02195076085627079 0.02228218875825405 -0.001638468587771058 0.018354585394263268 -0.021037105470895767 0.019770614802837372 0.0017413010355085135 -0.016114728525280952 0.013683037832379341 -0.02668004296720028 0.03310007601976395 -0.03440990298986435 -0.03468642011284828 -0.020449457690119743 0.006808944046497345 0.02169080823659897 -0.010651270858943462 -0.051105815917253494 -0.005531664006412029 0.036612894386053085 0.030346333980560303 0.023687178269028664 -0.040721602737903595 0.03191087394952774 -0.033345405012369156 -0.02038571797311306 -0.0028211420867592096 0.020836489275097847 -0.03079933486878872 0.05627533048391342 -0.02593955770134926 0.007974651642143726 -0.03348051384091377 -0.025056269019842148 -0.008546668104827404 0.04103837162256241 0.04484817758202553 -0.010723219253122807 0.001902805408462882 0.02155539020895958 -0.014152110554277897 -0.01570475660264492 -0.01976112090051174 -0.016792187467217445 0.01998451165854931 0.039814289659261703 -0.014430858194828033 -0.007339577190577984 0.007558837998658419 -0.002154312329366803 0.007263935636729002 0.012477830983698368 -0.01860066130757332 0.032552190124988556 -0.0392017662525177 -0.0019833084661513567 -0.018524592742323875 -0.014065788127481937 0.019632818177342415 0.0018775861244648695 -0.002826250623911619 0.046099212020635605 -0.015039695426821709 -0.01270933449268341 0.019200706854462624 -0.03208119794726372 -0.050090037286281586 -0.030291836708784103 -0.011550203897058964 -0.007585925981402397 -0.014221534132957458 0.03299301490187645 0.006845541764050722 0.014422500506043434 0.04022056609392166 0.016403233632445335 -0.0012141976039856672 0.035475850105285645 -0.036738649010658264 -0.003831245005130768 0.06244130805134773 -0.033248014748096466 0.004619445186108351 -0.018329476937651634 -0.01250129658728838 -0.004842583555728197 -0.02924363501369953 0.021668218076229095 -0.009669993072748184 0.03213362768292427 -0.007754609454423189 0.020726477727293968 0.0034365160390734673 0.0019231220940127969 0.009808290749788284 -0.002506640972569585 -0.03474755585193634
bjps 0.005141237750649452 -0.009565731510519981 -5.100004491396248E-4 0.0031069335527718067 0.0018107976065948606 -0.0033423262648284435 0.003755429061129689 0.002590636722743511 0.0019806933123618364 0.007733639795333147 -0.02230805531144142 0.003774053417146206 0.005125659052282572 0.00476193567737937 -0.003142615780234337 -0.00264948233962059 -0.0031759582925587893 0.0012458455748856068 0.0066046821884810925 -0.005718343425542116 0.001887079793959856 -0.009675534442067146 8.925197180360556E-4 0.009065326303243637 -9.601921774446964E-4 -0.005466230679303408 0.006669219117611647 -0.006587929092347622 -0.003140952903777361 -8.554080268368125E-4 0.0021780577953904867 -0.006707301363348961 0.003401069203391671 0.0082563990727067 -0.0020320897456258535 -0.003504596883431077 -0.007358834147453308 0.005816275253891945 0.008121113292872906 0.003493736730888486 0.008146056905388832 -0.0030700950883328915 -0.001771418610587716 -0.0012843706645071507 -0.0037564351223409176 -0.002471970859915018 0.00309893605299294 0.0021187167149037123 0.0024918359704315662 0.005425328854471445 0.0012512902030721307 -0.003519719932228327 -0.0045714485459029675 -0.007843815721571445 -7.306656916625798E-4 -0.00519003439694643 -6.943662883713841E-4 -0.0026338438037782907 0.00920081976801157 -0.00976275373250246 0.007888438180088997 0.0011535424273461103 0.004664076026529074 0.015660559758543968 -0.0034590400755405426 -0.002472334075719118 -0.005542331375181675 0.003529896726831794 0.010501913726329803 -0.010821785777807236 -6.592682329937816E-4 0.0013382676988840103 -7.767616189084947E-4 -0.00981638953089714 4.2875722283497453E-4 8.589551434852183E-4 -0.004214902874082327 -0.00585810886695981 -0.0010580946691334248 -0.004623873624950647 -0.0023320531472563744 0.008229673840105534 -0.0044655222445726395 -0.0011960393749177456 -0.003652372630313039 0.004879092797636986 0.004714985843747854 0.01058511808514595 0.00113205099478364 -0.0025092645082622766 0.0047964840196073055 -0.010730914771556854 5.256902659311891E-4 -0.0022853512782603502 0.013234934769570827 0.006437812931835651 0.005492182914167643 -6.547367083840072E-4 0.003672000952064991 -1.542644458822906E-4
national -0.003674027044326067 0.003918841481208801 -0.004678948316723108 -0.001987326657399535 0.0010510939173400402 -0.004001821391284466 0.002167746191844344 0.0027144444175064564 0.0030160548631101847 -0.0038998175878077745 -0.006334584206342697 1.2217149196658283E-4 -0.005646312143653631 0.005526782013475895 -0.0038005646783858538 1.9224249990656972E-4 -0.005533756222575903 0.0016463403590023518 0.0040793451480567455 -8.788449922576547E-4 -0.004519036039710045 0.003300066338852048 0.002880171872675419 0.004358240868896246 0.004206034354865551 6.114456336945295E-4 0.007203785236924887 -0.006736984942108393 -0.004278808366507292 -0.004177604801952839 0.0032913582399487495 -0.001110663404688239 0.006326325237751007 -0.0067177992314100266 -2.9929354786872864E-4 -0.0017324326327070594 -0.00877667497843504 0.0016346535412594676 -5.797016201540828E-4 0.006486124824732542 -0.004060337319970131 3.94057686207816E-4 0.0014257796574383974 -0.007352530024945736 -0.00539823342114687 8.656157297082245E-4 0.0019282570574432611 0.006165295373648405 0.0010709514608606696 -0.005454788915812969 0.0015225762035697699 -0.0020970955956727266 0.0025202285032719374 0.0021585123613476753 0.004745116923004389 -0.005776545964181423 0.006063810084015131 -0.0066889263689517975 -4.257945984136313E-4 -0.0030458690598607063 -0.0034425498452037573 0.001969445962458849 -0.003799115540459752 0.0022394468542188406 0.008948352187871933 -0.004090053960680962 0.0030137416906654835 0.0015519550070166588 -0.006792230997234583 -0.0040052211843431 -0.006021268665790558 -0.006786325015127659 -0.00285065034404397 7.517040357924998E-4 0.0022153924219310284 0.00609986437484622 0.0035438486374914646 0.0022275669034570456 -0.0033127106726169586 -0.0037618381902575493 9.044428006745875E-4 -9.06323897652328E-4 -0.005106533877551556 0.008955414406955242 -0.007002257741987705 0.0022907238453626633 -0.0056332978419959545 0.003635098459199071 0.004312352742999792 0.0013914784649387002 9.621770586818457E-4 0.003863580757752061 0.00790446624159813 -0.0011025337735190988 0.0011788958217948675 0.0034651849418878555 -3.106651420239359E-4 9.263757237931713E-5 -4.943498643115163E-4 -0.005546637810766697
after 0.0015710414154455066 0.0030349448788911104 -0.0034481550101190805 -0.006268682889640331 0.0025005671195685863 -0.0025310413911938667 0.0028733513318002224 -0.004485547076910734 7.494867313653231E-4 0.002508459845557809 -0.00469182338565588 -0.00281396578066051 -4.493341548368335E-4 0.0030482474248856306 -0.011406867764890194 -0.0065862382762134075 -0.009494366124272346 -2.8546908288262784E-4 0.0012088059447705746 9.466690826229751E-4 -0.007680661976337433 0.0054384563118219376 0.012157313525676727 0.005560240242630243 0.005279649049043655 -0.00925289373844862 0.011125393211841583 -0.009637237526476383 -0.0022460096515715122 0.001701289089396596 0.004954148083925247 -0.007252875715494156 0.013906130567193031 0.00303111644461751 0.002338993363082409 -0.01067773811519146 -0.0028170475270599127 -0.004344286397099495 0.004929474089294672 0.010903090238571167 -0.0036562210880219936 -0.005718417465686798 0.0022255550138652325 -0.00373667199164629 -0.003991469740867615 -0.008333981968462467 -0.006560905370861292 0.011267166584730148 0.010928732343018055 -0.0063985800370574 -0.003938818350434303 0.002419277559965849 0.003260576631873846 0.007167415227741003 0.00490909069776535 -0.002773128217086196 0.012496786192059517 -0.006721696350723505 -0.004760597366839647 -0.006468747276812792 -0.0075813704170286655 0.0025520564522594213 0.0010786157799884677 0.0026529734022915363 0.013320153579115868 -0.0014663191977888346 -0.0032549528405070305 0.0076090800575912 -9.370670304633677E-4 -0.016609888523817062 -0.00628779036924243 -0.00966077484190464 -0.004235387779772282 -0.004824600648134947 0.009965294972062111 6.674002506770194E-4 8.264977368526161E-4 0.007885116152465343 -9.059207513928413E-4 0.002992026973515749 0.010722573846578598 -0.0037312039639800787 -0.0031479180324822664 0.009937327355146408 -0.012110168114304543 0.00108696601819247 -6.086424691602588E-4 -5.455742357298732E-4 -3.552541311364621E-4 -0.004053943790495396 0.008521498180925846 -0.001168298302218318 0.011590631678700447 -0.007318031042814255 0.001746384659782052 0.001262158271856606 0.0028863628394901752 8.823826792649925E-4 0.0022550884168595076 -0.0040795402601361275
free -0.005397917237132788 -0.004181449301540852 -0.003247734857723117 -8.337899344041944E-4 -0.004207286983728409 0.005186671391129494 -0.008818354457616806 -0.004521889612078667 0.002963704988360405 3.0841067200526595E-4 0.009626260958611965 -0.004911339376121759 -0.004049178212881088 3.524786443449557E-4 0.002020092448219657 8.186860359273851E-4 8.723455248400569E-4 -6.283956463448703E-4 -0.0056750355288386345 0.009835697710514069 0.006728144362568855 -0.002053906675428152 6.384020671248436E-4 -1.7639619181863964E-4 -0.003340792376548052 0.006188972853124142 -0.008476622402668 0.0052423938177526 0.0032424270175397396 0.002222635317593813 -3.03142296615988E-4 0.0064519187435507774 -0.003972143400460482 0.003985788207501173 -0.0033727160189300776 0.004493430722504854 0.0014633693499490619 -0.0011616689153015614 -0.009903962723910809 -0.005446551367640495 -0.005016806069761515 0.005944508593529463 -0.003455505706369877 -0.001435156911611557 -0.0016138438368216157 3.441879234742373E-4 -0.002821776084601879 -0.008178223855793476 -0.0014167878543958068 0.0023154919035732746 -0.0018539873417466879 -0.003414497012272477 -0.0032025352120399475 -1.2594560394063592E-4 -0.002561316592618823 0.004410147201269865 -0.006983428727835417 0.00356890051625669 0.0031497818417847157 -3.532542032189667E-4 0.002252017380669713 0.003059661714360118 -0.0043558394536376 -0.00527271768078208 -0.0027611381374299526 -0.0018046110635623336 0.001042381627485156 -0.006403747946023941 -0.0012035348918288946 0.011938105337321758 0.0019816758576780558 0.004869743715971708 -0.0016489814734086394 -0.0011576554970815778 -0.003090091049671173 9.165595402009785E-4 0.0056704627349972725 0.004761955235153437 0.0036598406732082367 0.0028746838215738535 -0.003170107025653124 5.783791420981288E-4 0.005689349956810474 -0.004229238256812096 0.007879350334405899 -0.003326249774545431 -7.969500729814172E-4 -8.098054968286306E-5 -0.0018771484028548002 0.0043259309604763985 -0.0033904067240655422 0.005166240036487579 -0.005697861313819885 0.002168416976928711 -0.0028361587319523096 -0.005295469891279936 3.627742698881775E-4 -0.003429001895710826 -0.0015506905037909746 0.007127765566110611
gives -0.0011462719412520528 0.006534517277032137 -0.00269326358102262 1.8877752881962806E-4 8.681429317221045E-4 0.001687423326075077 0.003340021474286914 -0.001883499906398356 0.002952267648652196 0.002860339591279626 -0.0034549818374216557 -8.207379723899066E-4 -0.0074896542355418205 0.004585464484989643 -0.005364944692701101 -0.004759347997605801 -0.0036519214045256376 -0.00199199584312737 0.001794259762391448 0.0013396891299635172 -0.014991999603807926 -0.002209169091656804 0.010234853252768517 0.0055006095208227634 0.0014138101832941175 -0.013294081203639507 0.004816554952412844 -0.011515825986862183 7.366920472122729E-4 0.003146819304674864 0.005116328597068787 -0.005567928310483694 0.011441118083894253 -0.00623099273070693 0.003332227235659957 -0.0045115710236132145 -0.010479120537638664 0.001573652494698763 0.01244568545371294 0.011868374422192574 0.0015445001190528274 0.004912082105875015 0.008566574193537235 -0.00676106009632349 -0.003986580763012171 -0.00449984660372138 -0.006841817405074835 5.777543410658836E-4 0.00503217987716198 -0.009203323163092136 -0.0010116799967363477 0.005850420333445072 0.0044763595797121525 0.0069319987669587135 0.0020399712957441807 -0.0028894662391394377 0.011425376869738102 -0.01208864338696003 0.002779795555397868 -0.003304392332211137 -0.004227213561534882 0.007229177746921778 0.001490933122113347 0.0019594007171690464 0.007913369685411453 -0.0029128780588507652 3.22061765473336E-4 0.00510321743786335 -0.012098787352442741 -0.01443237904459238 -0.008460124023258686 -0.007066388614475727 -0.0035983039997518063 -0.0027062934823334217 0.005882009863853455 -0.0028584671672433615 -0.001024137600325048 0.01070263609290123 0.0018022417789325118 0.005742376204580069 0.007267741486430168 -0.012458281591534615 0.0021807036828249693 0.01191413402557373 -0.006123239640146494 -0.0010100073413923383 -0.008623854257166386 -0.003029233543202281 -0.0036673538852483034 -0.006037205923348665 0.004434012342244387 -0.0010026460513472557 0.0039016304071992636 -1.546957209939137E-4 0.006729254499077797 0.002811388112604618 0.0028403433971107006 -0.003639594418928027 -0.006468662992119789 -0.0033076931722462177
